{"learner":{"attributes":{"scikit_learn":"{\"_estimator_type\": \"classifier\"}"},"feature_names":["quantity","hour","day","side_encoded","profit_loss_actual","is_profit","loss_amount","price_range","price_range_pct","trade_value","win_rate_5","avg_qty_5","qty_volatility_5","qty_max_5","avg_profit_5","profit_std_5","max_drawdown_5","buy_ratio_5","win_rate_10","avg_qty_10","qty_volatility_10","qty_max_10","avg_profit_10","profit_std_10","max_drawdown_10","buy_ratio_10","win_rate_20","avg_qty_20","qty_volatility_20","qty_max_20","avg_profit_20","profit_std_20","max_drawdown_20","buy_ratio_20","win_rate_50","avg_qty_50","qty_volatility_50","qty_max_50","avg_profit_50","profit_std_50","max_drawdown_50","buy_ratio_50","early_close_indicator","qty_after_loss","time_between_trades"],"feature_types":["float","int","int","int","float","int","float","float","float","float","float","float","float","float","float","float","float","float","float","float","float","float","float","float","float","float","float","float","float","float","float","float","float","float","float","float","float","float","float","float","float","float","float","float","float"],"gradient_booster":{"model":{"cats":{"enc":[],"feature_segments":[],"sorted_idx":[]},"gbtree_model_param":{"num_parallel_tree":"1","num_trees":"1200"},"iteration_indptr":[0,4,8,12,16,20,24,28,32,36,40,44,48,52,56,60,64,68,72,76,80,84,88,92,96,100,104,108,112,116,120,124,128,132,136,140,144,148,152,156,160,164,168,172,176,180,184,188,192,196,200,204,208,212,216,220,224,228,232,236,240,244,248,252,256,260,264,268,272,276,280,284,288,292,296,300,304,308,312,316,320,324,328,332,336,340,344,348,352,356,360,364,368,372,376,380,384,388,392,396,400,404,408,412,416,420,424,428,432,436,440,444,448,452,456,460,464,468,472,476,480,484,488,492,496,500,504,508,512,516,520,524,528,532,536,540,544,548,552,556,560,564,568,572,576,580,584,588,592,596,600,604,608,612,616,620,624,628,632,636,640,644,648,652,656,660,664,668,672,676,680,684,688,692,696,700,704,708,712,716,720,724,728,732,736,740,744,748,752,756,760,764,768,772,776,780,784,788,792,796,800,804,808,812,816,820,824,828,832,836,840,844,848,852,856,860,864,868,872,876,880,884,888,892,896,900,904,908,912,916,920,924,928,932,936,940,944,948,952,956,960,964,968,972,976,980,984,988,992,996,1000,1004,1008,1012,1016,1020,1024,1028,1032,1036,1040,1044,1048,1052,1056,1060,1064,1068,1072,1076,1080,1084,1088,1092,1096,1100,1104,1108,1112,1116,1120,1124,1128,1132,1136,1140,1144,1148,1152,1156,1160,1164,1168,1172,1176,1180,1184,1188,1192,1196,1200],"tree_info":[0,1,2,3,0,1,2,3,0,1,2,3,0,1,2,3,0,1,2,3,0,1,2,3,0,1,2,3,0,1,2,3,0,1,2,3,0,1,2,3,0,1,2,3,0,1,2,3,0,1,2,3,0,1,2,3,0,1,2,3,0,1,2,3,0,1,2,3,0,1,2,3,0,1,2,3,0,1,2,3,0,1,2,3,0,1,2,3,0,1,2,3,0,1,2,3,0,1,2,3,0,1,2,3,0,1,2,3,0,1,2,3,0,1,2,3,0,1,2,3,0,1,2,3,0,1,2,3,0,1,2,3,0,1,2,3,0,1,2,3,0,1,2,3,0,1,2,3,0,1,2,3,0,1,2,3,0,1,2,3,0,1,2,3,0,1,2,3,0,1,2,3,0,1,2,3,0,1,2,3,0,1,2,3,0,1,2,3,0,1,2,3,0,1,2,3,0,1,2,3,0,1,2,3,0,1,2,3,0,1,2,3,0,1,2,3,0,1,2,3,0,1,2,3,0,1,2,3,0,1,2,3,0,1,2,3,0,1,2,3,0,1,2,3,0,1,2,3,0,1,2,3,0,1,2,3,0,1,2,3,0,1,2,3,0,1,2,3,0,1,2,3,0,1,2,3,0,1,2,3,0,1,2,3,0,1,2,3,0,1,2,3,0,1,2,3,0,1,2,3,0,1,2,3,0,1,2,3,0,1,2,3,0,1,2,3,0,1,2,3,0,1,2,3,0,1,2,3,0,1,2,3,0,1,2,3,0,1,2,3,0,1,2,3,0,1,2,3,0,1,2,3,0,1,2,3,0,1,2,3,0,1,2,3,0,1,2,3,0,1,2,3,0,1,2,3,0,1,2,3,0,1,2,3,0,1,2,3,0,1,2,3,0,1,2,3,0,1,2,3,0,1,2,3,0,1,2,3,0,1,2,3,0,1,2,3,0,1,2,3,0,1,2,3,0,1,2,3,0,1,2,3,0,1,2,3,0,1,2,3,0,1,2,3,0,1,2,3,0,1,2,3,0,1,2,3,0,1,2,3,0,1,2,3,0,1,2,3,0,1,2,3,0,1,2,3,0,1,2,3,0,1,2,3,0,1,2,3,0,1,2,3,0,1,2,3,0,1,2,3,0,1,2,3,0,1,2,3,0,1,2,3,0,1,2,3,0,1,2,3,0,1,2,3,0,1,2,3,0,1,2,3,0,1,2,3,0,1,2,3,0,1,2,3,0,1,2,3,0,1,2,3,0,1,2,3,0,1,2,3,0,1,2,3,0,1,2,3,0,1,2,3,0,1,2,3,0,1,2,3,0,1,2,3,0,1,2,3,0,1,2,3,0,1,2,3,0,1,2,3,0,1,2,3,0,1,2,3,0,1,2,3,0,1,2,3,0,1,2,3,0,1,2,3,0,1,2,3,0,1,2,3,0,1,2,3,0,1,2,3,0,1,2,3,0,1,2,3,0,1,2,3,0,1,2,3,0,1,2,3,0,1,2,3,0,1,2,3,0,1,2,3,0,1,2,3,0,1,2,3,0,1,2,3,0,1,2,3,0,1,2,3,0,1,2,3,0,1,2,3,0,1,2,3,0,1,2,3,0,1,2,3,0,1,2,3,0,1,2,3,0,1,2,3,0,1,2,3,0,1,2,3,0,1,2,3,0,1,2,3,0,1,2,3,0,1,2,3,0,1,2,3,0,1,2,3,0,1,2,3,0,1,2,3,0,1,2,3,0,1,2,3,0,1,2,3,0,1,2,3,0,1,2,3,0,1,2,3,0,1,2,3,0,1,2,3,0,1,2,3,0,1,2,3,0,1,2,3,0,1,2,3,0,1,2,3,0,1,2,3,0,1,2,3,0,1,2,3,0,1,2,3,0,1,2,3,0,1,2,3,0,1,2,3,0,1,2,3,0,1,2,3,0,1,2,3,0,1,2,3,0,1,2,3,0,1,2,3,0,1,2,3,0,1,2,3,0,1,2,3,0,1,2,3,0,1,2,3,0,1,2,3,0,1,2,3,0,1,2,3,0,1,2,3,0,1,2,3,0,1,2,3,0,1,2,3,0,1,2,3,0,1,2,3,0,1,2,3,0,1,2,3,0,1,2,3,0,1,2,3,0,1,2,3,0,1,2,3,0,1,2,3,0,1,2,3,0,1,2,3,0,1,2,3,0,1,2,3,0,1,2,3,0,1,2,3,0,1,2,3,0,1,2,3,0,1,2,3,0,1,2,3,0,1,2,3,0,1,2,3,0,1,2,3,0,1,2,3,0,1,2,3,0,1,2,3,0,1,2,3,0,1,2,3,0,1,2,3,0,1,2,3,0,1,2,3,0,1,2,3,0,1,2,3,0,1,2,3,0,1,2,3,0,1,2,3,0,1,2,3,0,1,2,3,0,1,2,3,0,1,2,3,0,1,2,3,0,1,2,3,0,1,2,3,0,1,2,3,0,1,2,3,0,1,2,3,0,1,2,3,0,1,2,3,0,1,2,3,0,1,2,3,0,1,2,3,0,1,2,3,0,1,2,3,0,1,2,3,0,1,2,3,0,1,2,3,0,1,2,3,0,1,2,3,0,1,2,3,0,1,2,3,0,1,2,3,0,1,2,3,0,1,2,3,0,1,2,3,0,1,2,3,0,1,2,3,0,1,2,3,0,1,2,3,0,1,2,3,0,1,2,3,0,1,2,3,0,1,2,3],"trees":[{"base_weights":[2.1415726E-4,-3.3275366E-2,2.2402827E-1,4.7034597E-1,-2.4922721E-1,7.407004E-1,-1.7236023E-1,-4.1081467E-1,2.4001986E-1,-2.271895E-2,7.992566E-1,-3.6710903E-1,3.9629066E-1,-4.859554E-1,-2.2931535E-2,6.512047E-1,-3.4752274E-1,7.8871E-1,-1.9341943E-1,7.096369E-1,1.1711354E0,6.5881744E-2,-5.820404E-1,-1.285043E-1,8.5391307E-1,-3.4759742E-1,-6.028088E-1,1.0629553E0,-1.92787E-1,4.0574932E-1,1.2418681E0,6.4427465E-1,-5.1927614E-1,6.2228955E-2,-0E0,-1.9491196E-2,1.950053E-2,4.9228985E-2,3.10888E-2,2.9356444E-2,6.6568404E-2,1.3320525E-2,-2.09774E-2,-2.9769598E-2,3.776045E-2,3.4121394E-2,-2.0962784E-2,5.2280158E-2,-2.9528571E-2,-2.2182805E-2,-8.874998E-4,-1.7424056E-2,-3.1525817E-2,-1.0777468E-2,9.160427E-2,5.737492E-3,-2.0799713E-2,3.00159E-2,-4.8342063E-3,7.4107856E-2,2.7260726E-2,8.2790874E-2,-1.3170085E-2,-2.75951E-2,1.940555E-2],"categories":[],"categories_nodes":[],"categories_segments":[],"categories_sizes":[],"default_left":[0,0,0,0,0,0,0,0,0,0,0,0,0,0,0,0,0,0,0,0,0,0,0,0,0,0,0,0,0,0,0,0,0,0,0,0,0,0,0,0,0,0,0,0,0,0,0,0,0,0,0,0,0,0,0,0,0,0,0,0,0,0,0,0,0],"id":0,"left_children":[1,-1,3,5,7,9,11,13,15,17,19,21,23,25,27,29,31,33,35,37,39,41,43,45,47,49,51,53,55,57,59,61,63,-1,-1,-1,-1,-1,-1,-1,-1,-1,-1,-1,-1,-1,-1,-1,-1,-1,-1,-1,-1,-1,-1,-1,-1,-1,-1,-1,-1,-1,-1,-1,-1],"loss_changes":[1.4719595E3,0E0,8.623987E2,8.458839E2,2.004552E2,1.5355225E2,1.599253E2,5.524286E1,1.5259741E2,3.3992573E1,1.0344885E2,1.0042738E2,8.897711E1,2.4886292E1,5.7578316E1,5.200209E1,4.4866516E1,1.5595272E1,2.3775091E1,6.0062866E1,5.4913147E1,3.4976646E1,1.3669556E1,4.1155327E1,5.611821E1,2.3098595E1,5.1297913E0,4.304846E1,1.8928137E1,2.635952E1,1.5354767E1,3.720764E1,7.1123505E0,0E0,0E0,0E0,0E0,0E0,0E0,0E0,0E0,0E0,0E0,0E0,0E0,0E0,0E0,0E0,0E0,0E0,0E0,0E0,0E0,0E0,0E0,0E0,0E0,0E0,0E0,0E0,0E0,0E0,0E0,0E0,0E0],"parents":[2147483647,0,0,2,2,3,3,4,4,5,5,6,6,7,7,8,8,9,9,10,10,11,11,12,12,13,13,14,14,15,15,16,16,17,17,18,18,19,19,20,20,21,21,22,22,23,23,24,24,25,25,26,26,27,27,28,28,29,29,30,30,31,31,32,32],"right_children":[2,-1,4,6,8,10,12,14,16,18,20,22,24,26,28,30,32,34,36,38,40,42,44,46,48,50,52,54,56,58,60,62,64,-1,-1,-1,-1,-1,-1,-1,-1,-1,-1,-1,-1,-1,-1,-1,-1,-1,-1,-1,-1,-1,-1,-1,-1,-1,-1,-1,-1,-1,-1,-1,-1],"split_conditions":[6E1,-3.3275366E-2,5.625E-1,6.3779133E1,3.6997543E1,1.7684306E2,1.0855205E2,2E1,6.4705884E-1,5.4183548E1,-5.0422424E2,6.824648E1,-6.7404193E2,6.0465115E-1,-8.136331E2,5.8778786E1,2E0,5.714286E-1,1.6E1,-7.9649554E2,1.9268361E2,1.0832E2,5.94E2,2.3927283E2,7E0,1.7999458E1,2E0,-9.1702814E2,4E0,1.8E1,6.308561E1,9.695E1,2.8685873E2,6.2228955E-2,-0E0,-1.9491196E-2,1.950053E-2,4.9228985E-2,3.10888E-2,2.9356444E-2,6.6568404E-2,1.3320525E-2,-2.09774E-2,-2.9769598E-2,3.776045E-2,3.4121394E-2,-2.0962784E-2,5.2280158E-2,-2.9528571E-2,-2.2182805E-2,-8.874998E-4,-1.7424056E-2,-3.1525817E-2,-1.0777468E-2,9.160427E-2,5.737492E-3,-2.0799713E-2,3.00159E-2,-4.8342063E-3,7.4107856E-2,2.7260726E-2,8.2790874E-2,-1.3170085E-2,-2.75951E-2,1.940555E-2],"split_indices":[44,0,34,36,38,39,36,1,34,36,40,36,40,34,40,38,2,33,1,40,39,35,13,39,2,38,2,40,2,1,36,27,39,0,0,0,0,0,0,0,0,0,0,0,0,0,0,0,0,0,0,0,0,0,0,0,0,0,0,0,0,0,0,0,0],"split_type":[0,0,0,0,0,0,0,0,0,0,0,0,0,0,0,0,0,0,0,0,0,0,0,0,0,0,0,0,0,0,0,0,0,0,0,0,0,0,0,0,0,0,0,0,0,0,0,0,0,0,0,0,0,0,0,0,0,0,0,0,0,0,0,0,0],"sum_hessian":[9.876544E3,2.4834604E3,7.3930835E3,4.8630537E3,2.5300295E3,3.4234514E3,1.4396024E3,1.9028899E3,6.2713965E2,2.433599E2,3.1800916E3,1.0735323E3,3.6607007E2,1.5925803E3,3.1030948E2,3.6931393E2,2.5782574E2,4.0529922E1,2.0282997E2,2.568311E3,6.117805E2,3.5580493E2,7.1772736E2,1.7068112E2,1.9538895E2,7.347921E2,8.5778827E2,4.0152798E1,2.7015668E2,2.6387766E2,1.0543627E2,3.6816105E1,2.2100964E2,2.5147972E1,1.5381951E1,1.5288411E2,4.994586E1,6.1565204E2,1.9526589E3,1.3439491E2,4.773856E2,2.5315868E2,1.0264627E2,7.12101E2,5.626377E0,4.388049E1,1.2680064E2,1.7329083E2,2.2098106E1,5.67359E2,1.674331E2,8.871084E1,7.6907745E2,1.5378665E1,2.4774132E1,1.1308245E2,1.5707423E2,1.9065248E2,7.3225174E1,7.618562E1,2.9250648E1,1.6892715E1,1.992339E1,2.146271E2,6.3825355E0],"tree_param":{"num_deleted":"0","num_feature":"45","num_nodes":"65","size_leaf_vector":"1"}},{"base_weights":[-2.942251E-3,-4.1373825E-1,1.0145364E0,9.59057E-2,-4.3196145E-1,-3.3053294E-2,1.23016E0,1.7365535E-1,-4.9093333E-1,1.4788765E0,6.872481E-1,-4.3003234E-1,6.209432E-1,-5.923134E-1,-2.9632562E-1,1.6184751E0,6.848743E-1,9.481435E-2,1.5854802E0,-1.3216808E-1,-5.7214147E-1,-3.2296997E-2,1.0281234E0,-3.2201465E-2,-5.071921E-1,-3.3191364E-2,-1.4381473E-1,1.7017851E0,6.529567E-1,9.774825E-2,-9.0765566E-2,3.0995518E-1,-4.724457E-1,1.6042836E0,-1.352582E-2,3.396834E-2,-1.5025659E-2,-1.274681E-2,-3.0787338E-2,5.9097398E-2,-2.4151683E-2,-9.469342E-3,-2.8059328E-2,2.1718983E-3,-3.194854E-2,6.757276E-2,9.0518855E-2,4.5458354E-2,-7.3410086E-3,-3.2513667E-2,5.166308E-2,-2.5943804E-3,3.4933485E-2,1.808673E-2,-2.5941906E-2,5.88992E-2,8.6739674E-2],"categories":[],"categories_nodes":[],"categories_segments":[],"categories_sizes":[],"default_left":[0,0,0,0,0,0,0,0,0,0,0,0,0,0,0,0,0,0,0,0,0,0,0,0,0,0,0,0,0,0,0,0,0,0,0,0,0,0,0,0,0,0,0,0,0,0,0,0,0,0,0,0,0,0,0,0,0],"id":1,"left_children":[1,3,5,-1,7,-1,9,11,13,15,17,19,21,23,25,27,29,31,33,35,37,-1,39,-1,41,-1,43,45,47,-1,49,51,53,55,-1,-1,-1,-1,-1,-1,-1,-1,-1,-1,-1,-1,-1,-1,-1,-1,-1,-1,-1,-1,-1,-1,-1],"loss_changes":[4.1508975E3,3.01578E2,1.0338418E3,0E0,2.511322E2,0E0,3.3871484E2,1.690854E2,1.25484375E2,1.8880518E2,4.2442447E2,1.0765335E1,1.8704123E2,1.7280396E1,1.225983E2,1.1504614E2,2.606217E2,5.9322174E1,1.2610779E1,1.2476751E1,1.7195816E0,0E0,6.500638E1,0E0,2.690451E1,0E0,1.4470543E2,4.503003E1,2.537815E1,0E0,1.04986855E2,5.004842E1,5.6140347E0,1.196759E1,0E0,0E0,0E0,0E0,0E0,0E0,0E0,0E0,0E0,0E0,0E0,0E0,0E0,0E0,0E0,0E0,0E0,0E0,0E0,0E0,0E0,0E0,0E0],"parents":[2147483647,0,0,1,1,2,2,4,4,6,6,7,7,8,8,9,9,10,10,11,11,12,12,13,13,14,14,15,15,16,16,17,17,18,18,19,19,20,20,22,22,24,24,26,26,27,27,28,28,30,30,31,31,32,32,33,33],"right_children":[2,4,6,-1,8,-1,10,12,14,16,18,20,22,24,26,28,30,32,34,36,38,-1,40,-1,42,-1,44,46,48,-1,50,52,54,56,-1,-1,-1,-1,-1,-1,-1,-1,-1,-1,-1,-1,-1,-1,-1,-1,-1,-1,-1,-1,-1,-1,-1],"split_conditions":[5.625E-1,-1.3829232E3,3E1,9.59057E-2,1.8432777E2,-3.3053294E-2,3.052183E1,4.871795E-1,5.16129E-1,2.01E2,6.4705884E-1,-4.047915E2,6E1,4.8E-1,6E1,2.6173776E2,-1.1041977E4,5.5709656E1,1.95899E2,5E0,1.91E2,-3.2296997E-2,2.01E2,-3.2201465E-2,2.0400659E2,-3.3191364E-2,2.01E2,5.8064514E-1,2E1,9.774825E-2,8E2,6.0465115E-1,1.284893E2,6.666667E-1,-1.352582E-2,3.396834E-2,-1.5025659E-2,-1.274681E-2,-3.0787338E-2,5.9097398E-2,-2.4151683E-2,-9.469342E-3,-2.8059328E-2,2.1718983E-3,-3.194854E-2,6.757276E-2,9.0518855E-2,4.5458354E-2,-7.3410086E-3,-3.2513667E-2,5.166308E-2,-2.5943804E-3,3.4933485E-2,1.808673E-2,-2.5941906E-2,5.88992E-2,8.6739674E-2],"split_indices":[34,40,44,0,39,0,38,34,34,37,34,32,44,34,44,39,38,38,36,1,37,0,37,0,39,0,37,34,1,0,37,34,23,34,0,0,0,0,0,0,0,0,0,0,0,0,0,0,0,0,0,0,0,0,0,0,0],"split_type":[0,0,0,0,0,0,0,0,0,0,0,0,0,0,0,0,0,0,0,0,0,0,0,0,0,0,0,0,0,0,0,0,0,0,0,0,0,0,0,0,0,0,0,0,0,0,0,0,0,0,0,0,0,0,0,0,0],"sum_hessian":[9.927653E3,7.0734873E3,2.8541658E3,5.3020294E1,7.0204673E3,3.2467548E2,2.5294905E3,6.2185956E2,6.3986074E3,1.7317705E3,7.9771985E2,2.6421616E2,3.576434E2,4.2026157E3,2.195992E3,1.4705221E3,2.6124844E2,4.8235068E2,3.153692E2,8.772367E1,1.7649248E2,8.640521E1,2.712382E2,2.6024685E3,1.6001473E3,6.411192E2,1.5548727E3,1.3518356E3,1.1868654E2,9.814394E1,1.631045E2,3.51013E2,1.3133768E2,3.127414E2,2.627798E0,1.3517784E1,7.420589E1,2.4370361E1,1.5212212E2,2.4687474E2,2.4363441E1,2.3503474E2,1.3651127E3,1.1288075E3,4.2606522E2,3.2732907E2,1.0245065E3,9.0156364E1,2.8530172E1,1.0975799E2,5.3346523E1,1.8202141E2,1.689916E2,5.6354113E0,1.2570227E2,7.8901E1,2.338404E2],"tree_param":{"num_deleted":"0","num_feature":"45","num_nodes":"57","size_leaf_vector":"1"}},{"base_weights":[-0E0,1.9969819E0,-3.332093E-2,1.1694437E-2,9.99096E-2],"categories":[],"categories_nodes":[],"categories_segments":[],"categories_sizes":[],"default_left":[0,0,0,0,0],"id":2,"left_children":[1,3,-1,-1,-1],"loss_changes":[1.3178829E4,3.2363281E0,0E0,0E0,0E0],"parents":[2147483647,0,0,1,1],"right_children":[2,4,-1,-1,-1],"split_conditions":[6E1,1.41E2,-3.332093E-2,1.1694437E-2,9.99096E-2],"split_indices":[44,29,0,0,0],"split_type":[0,0,0,0,0],"sum_hessian":[9.8992295E3,2.4757393E3,7.42349E3,2.2480705E0,2.4734912E3],"tree_param":{"num_deleted":"0","num_feature":"45","num_nodes":"5","size_leaf_vector":"1"}},{"base_weights":[3.0489445E-3,-2.80441E-1,1.1532496E0,-3.3271518E-2,-1.2520316E-1,1.8255222E0,2.3385976E-2,1.4867245E-1,-4.4604278E-1,-3.1112865E-2,1.9081453E0,-3.2994688E-2,4.2384765E-1,3.0706757E-1,-6.467869E-2,-3.0014437E-1,-5.268256E-1,-3.0053595E-2,1.9658005E0,-3.235205E-2,6.924209E-1,3.9549512E-1,-8.382378E-2,5.378089E-1,-1.2210504E-1,-4.809339E-1,-1.3382061E-1,-9.316085E-3,-5.4732764E-1,1.9691865E0,8.067473E-3,-2.191107E-2,1.030122E0,1.8881889E-2,8.7307684E-2,-8.90597E-3,5.6090023E-2,4.647779E-2,-7.467732E-3,-4.4069043E-3,-3.0787125E-2,-2.8296402E-2,-6.8726316E-3,-1.7184002E-2,4.9067196E-3,-2.0854516E-2,8.299917E-2,-2.7858837E-2,-0E0,2.4952674E-2,9.8585546E-2,6.0265835E-2,-2.1988817E-2,6.647791E-2,1.5602365E-2],"categories":[],"categories_nodes":[],"categories_segments":[],"categories_sizes":[],"default_left":[0,0,0,0,0,0,0,0,0,0,0,0,0,0,0,0,0,0,0,0,0,0,0,0,0,0,0,0,0,0,0,0,0,0,0,0,0,0,0,0,0,0,0,0,0,0,0,0,0,0,0,0,0,0,0],"id":3,"left_children":[1,3,5,-1,7,9,11,13,15,-1,17,-1,19,21,23,25,27,-1,29,-1,31,33,35,37,39,41,43,45,47,49,-1,51,53,-1,-1,-1,-1,-1,-1,-1,-1,-1,-1,-1,-1,-1,-1,-1,-1,-1,-1,-1,-1,-1,-1],"loss_changes":[3.2198774E3,4.728241E2,1.4821917E3,0E0,4.9658038E2,2.5055078E2,2.003894E2,1.0315489E2,2.9942078E1,0E0,1.7443018E2,0E0,1.3390833E2,6.0740494E1,4.486339E1,2.765696E1,1.7431305E1,0E0,5.3793945E0,0E0,9.005025E1,3.2090836E1,3.671743E1,3.0990658E1,1.946331E1,1.2497299E1,2.4081997E1,4.610244E1,8.49115E0,1.0869141E0,0E0,6.2512386E1,5.2628174E1,0E0,0E0,0E0,0E0,0E0,0E0,0E0,0E0,0E0,0E0,0E0,0E0,0E0,0E0,0E0,0E0,0E0,0E0,0E0,0E0,0E0,0E0],"parents":[2147483647,0,0,1,1,2,2,4,4,5,5,6,6,7,7,8,8,10,10,12,12,13,13,14,14,15,15,16,16,18,18,20,20,21,21,22,22,23,23,24,24,25,25,26,26,27,27,28,28,29,29,31,31,32,32],"right_children":[2,4,6,-1,8,10,12,14,16,-1,18,-1,20,22,24,26,28,-1,30,-1,32,34,36,38,40,42,44,46,48,50,-1,52,54,-1,-1,-1,-1,-1,-1,-1,-1,-1,-1,-1,-1,-1,-1,-1,-1,-1,-1,-1,-1,-1,-1],"split_conditions":[2.01E2,6E1,6.2E2,-3.3271518E-2,5.416667E-1,3E1,3E0,5E-1,5.8064514E-1,-3.1112865E-2,-1.1041977E4,-3.2994688E-2,-8.989913E1,-5.0422424E2,2E0,7.7415853E0,-8.981867E2,-3.0053595E-2,-1.2037114E2,-3.235205E-2,1.1966E2,-5.061418E2,-3.4016782E2,1.8E1,8E0,7E0,2.2549217E2,-9.427674E2,8.524242E1,4.2945835E1,8.067473E-3,-7.848246E0,1.51E3,1.8881889E-2,8.7307684E-2,-8.90597E-3,5.6090023E-2,4.647779E-2,-7.467732E-3,-4.4069043E-3,-3.0787125E-2,-2.8296402E-2,-6.8726316E-3,-1.7184002E-2,4.9067196E-3,-2.0854516E-2,8.299917E-2,-2.7858837E-2,-0E0,2.4952674E-2,9.8585546E-2,6.0265835E-2,-2.1988817E-2,6.647791E-2,1.5602365E-2],"split_indices":[37,44,37,0,34,44,2,34,34,0,38,0,38,40,2,38,40,0,32,0,35,40,40,1,2,2,31,40,38,28,0,38,37,0,0,0,0,0,0,0,0,0,0,0,0,0,0,0,0,0,0,0,0,0,0],"split_type":[0,0,0,0,0,0,0,0,0,0,0,0,0,0,0,0,0,0,0,0,0,0,0,0,0,0,0,0,0,0,0,0,0,0,0,0,0,0,0,0,0,0,0,0,0,0,0,0,0,0,0,0,0,0,0],"sum_hessian":[9.869473E3,7.9188027E3,1.9506696E3,2.2727058E3,5.646097E3,1.2219384E3,7.287312E2,3.0457197E3,2.6003772E3,3.9274803E1,1.1826636E3,2.6833896E2,4.6039224E2,1.7488282E3,1.2968915E3,9.3226807E2,1.6681093E3,2.5945908E1,1.1567177E3,9.1374084E1,3.6901816E2,1.4272181E3,3.216101E2,1.1064317E2,1.1862484E3,4.43455E2,4.8881308E2,6.460693E1,1.6035023E3,1.1540923E3,2.625314E0,1.1857939E2,2.5043877E2,1.411486E3,1.5732167E1,3.002462E2,2.1363943E1,7.04833E1,4.015987E1,1.1130312E3,7.3217155E1,3.5328415E2,9.0170815E1,2.572555E2,2.3155756E2,5.3369667E1,1.1237262E1,1.5745953E3,2.8906984E1,2.9990678E0,1.1510933E3,2.8858736E1,8.972066E1,1.750456E2,7.539317E1],"tree_param":{"num_deleted":"0","num_feature":"45","num_nodes":"55","size_leaf_vector":"1"}},{"base_weights":[2.506279E-4,-3.2890044E-2,2.1385562E-1,4.4212756E-1,-2.376485E-1,7.3016405E-1,-3.2463643E-1,-4.0273857E-1,2.226357E-1,1.7179853E-1,8.011594E-1,-6.27354E-1,4.5533922E-1,-5.9789026E-1,-3.049687E-1,6.1157453E-1,-3.4180167E-1,7.425663E-1,-5.6476127E-2,7.375911E-1,1.3161253E0,1.11663595E-1,-6.3523585E-1,-7.702517E-2,8.9404726E-1,7.7039967E-3,-6.0391617E-1,-1.6502564E-1,-4.7120905E-1,3.8784862E-1,1.1599858E0,5.919082E-1,-5.0627565E-1,5.926459E-2,2.4436295E-3,5.522096E-2,-6.7659556E-3,3.519956E-2,6.638125E-2,7.0174366E-2,1.2242591E-2,-2.220656E-2,5.4089535E-2,-3.265037E-2,-2.1428345E-2,3.8950916E-2,-1.8637864E-2,5.2741237E-2,-2.8878737E-2,-1.4691572E-2,2.3722462E-2,-1.1046777E-3,-3.0418465E-2,-0E0,-1.9324934E-2,8.72684E-3,-2.5855679E-2,3.3271614E-2,4.5806165E-3,7.3523685E-2,2.790755E-2,7.679722E-2,-1.3814092E-2,-2.6748154E-2,5.141261E-2],"categories":[],"categories_nodes":[],"categories_segments":[],"categories_sizes":[],"default_left":[0,0,0,0,0,0,0,0,0,0,0,0,0,0,0,0,0,0,0,0,0,0,0,0,0,0,0,0,0,0,0,0,0,0,0,0,0,0,0,0,0,0,0,0,0,0,0,0,0,0,0,0,0,0,0,0,0,0,0,0,0,0,0,0,0],"id":4,"left_children":[1,-1,3,5,7,9,11,13,15,17,19,21,23,25,27,29,31,33,35,37,39,41,43,45,47,49,51,53,55,57,59,61,63,-1,-1,-1,-1,-1,-1,-1,-1,-1,-1,-1,-1,-1,-1,-1,-1,-1,-1,-1,-1,-1,-1,-1,-1,-1,-1,-1,-1,-1,-1,-1,-1],"loss_changes":[1.3913121E3,0E0,7.70656E2,1.0974098E3,1.9103574E2,1.4237878E2,3.2104742E2,3.44675E1,1.4615007E2,5.3933628E1,1.0185791E2,6.1052246E0,8.9317894E1,2.5460205E0,2.8322914E1,4.665448E1,4.2224037E1,3.5534073E1,2.6776731E1,5.373108E1,3.109851E1,7.405517E0,2.460266E0,4.4185287E1,5.0918945E1,1.3826228E0,1.2337952E0,2.4851572E1,1.7041702E1,2.280487E1,1.8362076E1,3.516642E1,1.10762825E1,0E0,0E0,0E0,0E0,0E0,0E0,0E0,0E0,0E0,0E0,0E0,0E0,0E0,0E0,0E0,0E0,0E0,0E0,0E0,0E0,0E0,0E0,0E0,0E0,0E0,0E0,0E0,0E0,0E0,0E0,0E0,0E0],"parents":[2147483647,0,0,2,2,3,3,4,4,5,5,6,6,7,7,8,8,9,9,10,10,11,11,12,12,13,13,14,14,15,15,16,16,17,17,18,18,19,19,20,20,21,21,22,22,23,23,24,24,25,25,26,26,27,27,28,28,29,29,30,30,31,31,32,32],"right_children":[2,-1,4,6,8,10,12,14,16,18,20,22,24,26,28,30,32,34,36,38,40,42,44,46,48,50,52,54,56,58,60,62,64,-1,-1,-1,-1,-1,-1,-1,-1,-1,-1,-1,-1,-1,-1,-1,-1,-1,-1,-1,-1,-1,-1,-1,-1,-1,-1,-1,-1,-1,-1,-1,-1],"split_conditions":[6E1,-3.2890044E-2,5.625E-1,2.01E2,3.5549717E1,1.8512164E2,6.2E2,1.9039973E2,6.4705884E-1,4.6153846E-1,-4.6331305E2,1.69E2,-6.7404193E2,4.2017883E1,6.0465115E-1,5.8778786E1,2E0,6.0278194E1,2E0,8E0,-3.1944855E2,3.1614062E2,-5.0090244E2,2.4004694E2,7E0,9.5E1,-7.501764E2,1.99E2,9.1E1,6.0465115E-1,1.99E2,9.695E1,1.371E2,5.926459E-2,2.4436295E-3,5.522096E-2,-6.7659556E-3,3.519956E-2,6.638125E-2,7.0174366E-2,1.2242591E-2,-2.220656E-2,5.4089535E-2,-3.265037E-2,-2.1428345E-2,3.8950916E-2,-1.8637864E-2,5.2741237E-2,-2.8878737E-2,-1.4691572E-2,2.3722462E-2,-1.1046777E-3,-3.0418465E-2,-0E0,-1.9324934E-2,8.72684E-3,-2.5855679E-2,3.3271614E-2,4.5806165E-3,7.3523685E-2,2.790755E-2,7.679722E-2,-1.3814092E-2,-2.6748154E-2,5.141261E-2],"split_indices":[44,0,34,37,38,39,37,39,34,34,40,29,40,28,34,38,2,28,2,2,40,31,40,39,2,0,24,37,35,34,37,27,35,0,0,0,0,0,0,0,0,0,0,0,0,0,0,0,0,0,0,0,0,0,0,0,0,0,0,0,0,0,0,0,0],"split_type":[0,0,0,0,0,0,0,0,0,0,0,0,0,0,0,0,0,0,0,0,0,0,0,0,0,0,0,0,0,0,0,0,0,0,0,0,0,0,0,0,0,0,0,0,0,0,0,0,0,0,0,0,0,0,0,0,0,0,0,0,0,0,0,0,0],"sum_hessian":[9.89571E3,2.4234143E3,7.472296E3,4.9638276E3,2.5084683E3,3.6088884E3,1.3549391E3,1.8472512E3,6.6121704E2,4.0866824E2,3.2002202E3,9.768461E2,3.780929E2,6.1144446E2,1.2358068E3,3.9189288E2,2.693242E2,1.16088974E2,2.9257925E2,2.8537803E3,3.4644003E2,9.361034E0,9.674851E2,1.7104364E2,2.0704927E2,5.2011943E0,6.062433E2,6.747702E2,5.6103656E2,2.81415E2,1.10477875E2,3.910269E1,2.3022148E2,6.955795E1,4.653102E1,1.6549192E1,2.7603006E2,2.7049768E3,1.488033E2,3.193132E2,2.7126854E1,6.313157E0,3.047877E0,8.8467285E2,8.2812256E1,4.264418E1,1.2839946E2,1.8747363E2,1.957564E1,2.9591534E0,2.2420409E0,5.548219E0,6.0069507E2,3.8702588E2,2.877443E2,3.6140865E1,5.248957E2,1.431232E2,1.3829181E2,7.0427E1,4.0050877E1,1.8272036E1,2.0830658E1,2.2759528E2,2.6262138E0],"tree_param":{"num_deleted":"0","num_feature":"45","num_nodes":"65","size_leaf_vector":"1"}},{"base_weights":[-1.2284134E-3,-4.0554488E-1,9.471317E-1,8.784311E-2,-4.2421255E-1,1.2546699E0,5.5623394E-1,1.616356E-1,-4.847762E-1,8.29395E-1,1.434202E0,8.950073E-2,4.358707E-1,-4.1716817E-1,5.812054E-1,-5.8683354E-1,-2.929713E-1,1.251005E0,6.007368E-1,1.5264199E0,-2.0468943E-2,2.4936233E-1,1.2904965E0,-1.24407545E-1,-5.7177E-1,-5.200745E-1,8.548304E-1,-3.1845585E-2,-5.063753E-1,-2.0461898E-1,-6.306461E-1,1.4582404E-1,1.3778152E0,4.4653264E-1,1.5170739E0,8.594904E-2,1.3357067E0,-3.1027207E-2,8.59872E-1,4.125596E-1,-5.296409E-1,-2.996106E-2,1.4875728E0,3.4526646E-2,-1.3327225E-2,-1.3824805E-2,-3.0496377E-2,4.0325858E-2,-2.983864E-2,5.010006E-2,-2.9874412E-2,-1.0803103E-2,-2.7594153E-2,-2.2905938E-2,2.6883003E-3,-1.8826004E-2,-3.261467E-2,6.669632E-2,-2.735959E-2,-1.5764764E-2,7.110926E-2,3.144987E-2,-1.3643441E-2,8.257122E-2,-1.3782653E-2,5.954523E-2,8.500728E-2,7.98959E-2,4.677705E-3,1.0954213E-2,5.4766692E-2,-2.8922483E-2,1.7116373E-2,-1.9617394E-2,6.1633617E-2,7.994274E-2,7.5022243E-3],"categories":[],"categories_nodes":[],"categories_segments":[],"categories_sizes":[],"default_left":[0,0,0,0,0,0,0,0,0,0,0,0,0,0,0,0,0,0,0,0,0,0,0,0,0,0,0,0,0,0,0,0,0,0,0,0,0,0,0,0,0,0,0,0,0,0,0,0,0,0,0,0,0,0,0,0,0,0,0,0,0,0,0,0,0,0,0,0,0,0,0,0,0,0,0,0,0],"id":5,"left_children":[1,3,5,-1,7,9,11,13,15,17,19,-1,21,23,25,27,29,31,33,35,37,39,41,43,45,47,49,-1,51,53,55,57,59,61,63,-1,65,-1,67,69,71,73,75,-1,-1,-1,-1,-1,-1,-1,-1,-1,-1,-1,-1,-1,-1,-1,-1,-1,-1,-1,-1,-1,-1,-1,-1,-1,-1,-1,-1,-1,-1,-1,-1,-1,-1],"loss_changes":[3.8114812E3,2.8218213E2,3.5486133E2,0E0,2.4556982E2,1.2326831E2,1.9223737E2,1.5801593E2,1.2187048E2,4.562613E1,1.5696509E2,0E0,1.8967926E2,1.1871944E1,1.1472432E2,1.5246704E1,6.441678E1,2.3035004E1,4.3983612E1,3.409204E1,3.8477665E1,1.2586452E2,5.6456573E1,1.1515184E1,1.2145042E0,8.585445E0,6.621823E1,0E0,2.0266571E1,1.137937E2,1.4717712E0,1.8662487E1,1.3037933E1,3.7786358E1,1.2657661E1,0E0,2.4078247E1,0E0,1.5425289E1,1.0688724E2,7.8050957E0,1.39980755E1,2.6391266E1,0E0,0E0,0E0,0E0,0E0,0E0,0E0,0E0,0E0,0E0,0E0,0E0,0E0,0E0,0E0,0E0,0E0,0E0,0E0,0E0,0E0,0E0,0E0,0E0,0E0,0E0,0E0,0E0,0E0,0E0,0E0,0E0,0E0,0E0],"parents":[2147483647,0,0,1,1,2,2,4,4,5,5,6,6,7,7,8,8,9,9,10,10,12,12,13,13,14,14,15,15,16,16,17,17,18,18,19,19,20,20,21,21,22,22,23,23,24,24,25,25,26,26,28,28,29,29,30,30,31,31,32,32,33,33,34,34,36,36,38,38,39,39,40,40,41,41,42,42],"right_children":[2,4,6,-1,8,10,12,14,16,18,20,-1,22,24,26,28,30,32,34,36,38,40,42,44,46,48,50,-1,52,54,56,58,60,62,64,-1,66,-1,68,70,72,74,76,-1,-1,-1,-1,-1,-1,-1,-1,-1,-1,-1,-1,-1,-1,-1,-1,-1,-1,-1,-1,-1,-1,-1,-1,-1,-1,-1,-1,-1,-1,-1,-1,-1,-1],"split_conditions":[5.625E-1,-1.3829232E3,2.204995E2,8.784311E-2,1.8432777E2,3E0,-1.3829232E3,4.871795E-1,5.16129E-1,-6.339445E2,2.01E2,8.950073E-2,6.4705884E-1,-4.047915E2,2E0,4.8E-1,2.01E2,9.1E1,6.875E-1,1.8512164E2,1.11E3,2.01E2,2E0,5E0,1.91E2,1.5003162E2,2.01E2,-3.1845585E-2,2.0241063E2,3E0,2E0,6E0,-7.990689E2,6.1615406E1,2.1E1,8.594904E-2,6.4705884E-1,-3.1027207E-2,1.5762236E2,6E0,2.3E1,1.0968E2,2.01E2,3.4526646E-2,-1.3327225E-2,-1.3824805E-2,-3.0496377E-2,4.0325858E-2,-2.983864E-2,5.010006E-2,-2.9874412E-2,-1.0803103E-2,-2.7594153E-2,-2.2905938E-2,2.6883003E-3,-1.8826004E-2,-3.261467E-2,6.669632E-2,-2.735959E-2,-1.5764764E-2,7.110926E-2,3.144987E-2,-1.3643441E-2,8.257122E-2,-1.3782653E-2,5.954523E-2,8.500728E-2,7.98959E-2,4.677705E-3,1.0954213E-2,5.4766692E-2,-2.8922483E-2,1.7116373E-2,-1.9617394E-2,6.1633617E-2,7.994274E-2,7.5022243E-3],"split_indices":[34,40,39,0,39,2,40,34,34,40,37,0,34,32,2,34,37,35,34,39,37,37,2,1,37,39,37,0,39,2,2,1,32,30,1,0,34,0,36,2,1,35,37,0,0,0,0,0,0,0,0,0,0,0,0,0,0,0,0,0,0,0,0,0,0,0,0,0,0,0,0,0,0,0,0,0,0],"split_type":[0,0,0,0,0,0,0,0,0,0,0,0,0,0,0,0,0,0,0,0,0,0,0,0,0,0,0,0,0,0,0,0,0,0,0,0,0,0,0,0,0,0,0,0,0,0,0,0,0,0,0,0,0,0,0,0,0,0,0,0,0,0,0,0,0,0,0,0,0,0,0,0,0,0,0,0,0],"sum_hessian":[9.936993E3,6.9679873E3,2.9690056E3,5.7815346E1,6.910172E3,1.6584913E3,1.3105143E3,6.4634216E2,6.26383E3,4.9647272E2,1.1620187E3,1.1364999E2,1.1968643E3,2.7113144E2,3.752107E2,4.0840332E3,2.1797966E3,1.7066473E2,3.2580798E2,1.0929752E3,6.90434E1,9.8505945E2,2.1180484E2,9.606401E1,1.7506741E2,7.394992E1,3.0126077E2,2.5049055E3,1.5791278E3,1.7314554E3,4.4834128E2,1.8415142E1,1.5224959E2,2.8189075E2,4.391724E1,5.345737E2,5.5840155E2,4.174592E1,2.7297485E1,8.157472E2,1.6931227E2,2.7397053E1,1.8440779E2,1.25982E1,8.346581E1,2.3421457E1,1.5164597E2,2.6453516E0,7.1304565E1,2.744171E2,2.6843664E1,2.1703723E2,1.3620906E3,8.741862E2,8.572692E2,3.9893948E1,4.0844733E2,6.36864E0,1.2046503E1,3.2883482E0,1.4896124E2,2.2561375E2,5.6277E1,4.1261562E1,2.6556804E0,4.06711E2,1.5169054E2,1.24672985E1,1.4830188E1,6.382598E2,1.7748738E2,1.615179E2,7.7943687E0,2.2666183E1,4.7308702E0,1.695377E2,1.4870083E1],"tree_param":{"num_deleted":"0","num_feature":"45","num_nodes":"77","size_leaf_vector":"1"}},{"base_weights":[-4.143123E-3,1.8115424E0,-3.2954056E-2,1.0521743E-2,9.0630904E-2],"categories":[],"categories_nodes":[],"categories_segments":[],"categories_sizes":[],"default_left":[0,0,0,0,0],"id":6,"left_children":[1,3,-1,-1,-1],"loss_changes":[1.1712839E4,2.7216797E0,0E0,0E0,0E0],"parents":[2147483647,0,0,1,1],"right_children":[2,4,-1,-1,-1],"split_conditions":[6E1,1.2978537E2,-3.2954056E-2,1.0521743E-2,9.0630904E-2],"split_indices":[44,39,0,0,0],"split_type":[0,0,0,0,0],"sum_hessian":[9.84614E3,2.608976E3,7.2371636E3,2.3277817E0,2.6066484E3],"tree_param":{"num_deleted":"0","num_feature":"45","num_nodes":"5","size_leaf_vector":"1"}},{"base_weights":[-9.113291E-4,-2.7850056E-1,1.083346E0,-3.288631E-2,-1.2979746E-1,1.6746135E0,3.3963427E-2,2.3652467E-1,-3.6288083E-1,-3.0559633E-2,1.7413262E0,-3.2650445E-2,4.201491E-1,1.3050682E-2,3.5161412E-1,-1.5082286E-1,-4.9533877E-1,-2.9600514E-2,1.7901856E0,-3.195521E-2,6.7539495E-1,1.0297399E0,-2.5678221E-2,4.2605957E-1,3.265403E-2,-4.3856585E-1,-4.9749315E-2,-5.7550454E-1,-3.5946012E-1,8.9657985E-2,-0E0,8.525048E-1,-1.7586507E-1,-1.163612E-2,8.41138E-2,7.91083E-3,-9.732834E-3,1.6906826E-2,3.224693E-2,-1.129903E-2,1.1408804E-2,-2.3748588E-2,4.5263946E-2,-2.0913357E-2,1.3918463E-3,-2.9211646E-2,3.005288E-3,-7.4321027E-3,-2.2606038E-2,3.649949E-2,8.7857984E-2,-1.72059E-2,5.9273034E-2],"categories":[],"categories_nodes":[],"categories_segments":[],"categories_sizes":[],"default_left":[0,0,0,0,0,0,0,0,0,0,0,0,0,0,0,0,0,0,0,0,0,0,0,0,0,0,0,0,0,0,0,0,0,0,0,0,0,0,0,0,0,0,0,0,0,0,0,0,0,0,0,0,0],"id":7,"left_children":[1,3,5,-1,7,9,11,13,15,-1,17,-1,19,21,23,25,27,-1,29,-1,31,33,35,37,39,41,43,45,47,-1,-1,49,51,-1,-1,-1,-1,-1,-1,-1,-1,-1,-1,-1,-1,-1,-1,-1,-1,-1,-1,-1,-1],"loss_changes":[2.9765674E3,4.4353607E2,1.2497307E3,0E0,4.8354327E2,1.9924878E2,1.9377983E2,5.642946E1,9.6741394E1,0E0,1.4558252E2,0E0,1.2747194E2,3.0161694E1,3.421045E1,3.8537704E1,2.2298523E1,0E0,5.7209473E0,0E0,5.7725723E1,2.466825E1,2.2633493E1,2.1693176E1,1.4168501E1,1.7547432E1,2.856714E1,7.7260437E0,1.5139153E1,0E0,0E0,3.102214E1,1.5600287E1,0E0,0E0,0E0,0E0,0E0,0E0,0E0,0E0,0E0,0E0,0E0,0E0,0E0,0E0,0E0,0E0,0E0,0E0,0E0,0E0],"parents":[2147483647,0,0,1,1,2,2,4,4,5,5,6,6,7,7,8,8,10,10,12,12,13,13,14,14,15,15,16,16,18,18,20,20,21,21,22,22,23,23,24,24,25,25,26,26,27,27,28,28,31,31,32,32],"right_children":[2,4,6,-1,8,10,12,14,16,-1,18,-1,20,22,24,26,28,-1,30,-1,32,34,36,38,40,42,44,46,48,-1,-1,50,52,-1,-1,-1,-1,-1,-1,-1,-1,-1,-1,-1,-1,-1,-1,-1,-1,-1,-1,-1,-1],"split_conditions":[2.01E2,6E1,6.2E2,-3.288631E-2,5.121951E-1,3E1,3E0,4.6153846E-1,5.625E-1,-3.0559633E-2,-1.1041977E4,-3.2650445E-2,-8.989913E1,-9.1702814E2,5E-1,2.0085239E2,2.204995E2,-2.9600514E-2,-1.2037114E2,-3.195521E-2,-3.1336868E2,2.777017E2,5E0,1.94E2,-9.1337E0,6.25E-1,-1.8431257E1,7.7622185E1,5.714286E-1,8.9657985E-2,-0E0,8E0,2.5647763E2,-1.163612E-2,8.41138E-2,7.91083E-3,-9.732834E-3,1.6906826E-2,3.224693E-2,-1.129903E-2,1.1408804E-2,-2.3748588E-2,4.5263946E-2,-2.0913357E-2,1.3918463E-3,-2.9211646E-2,3.005288E-3,-7.4321027E-3,-2.2606038E-2,3.649949E-2,8.7857984E-2,-1.72059E-2,5.9273034E-2],"split_indices":[37,44,37,0,34,44,2,41,34,0,38,0,38,32,34,39,39,0,32,0,32,31,2,21,38,41,38,38,26,0,0,2,39,0,0,0,0,0,0,0,0,0,0,0,0,0,0,0,0,0,0,0,0],"split_type":[0,0,0,0,0,0,0,0,0,0,0,0,0,0,0,0,0,0,0,0,0,0,0,0,0,0,0,0,0,0,0,0,0,0,0,0,0,0,0,0,0,0,0,0,0,0,0,0,0,0,0,0,0],"sum_hessian":[9.886979E3,7.873237E3,2.0137417E3,2.2148E3,5.658437E3,1.2869502E3,7.2679144E2,2.1994802E3,3.4589565E3,3.581991E1,1.2511304E3,2.605793E2,4.662121E2,7.499134E2,1.4495669E3,1.3329801E3,2.1259766E3,2.4995047E1,1.2261353E3,8.956339E1,3.766487E2,2.6114109E1,7.237993E2,1.1734451E3,2.7612183E2,3.4348856E2,9.894915E2,1.3307245E3,7.9525195E2,1.223844E3,2.2913146E0,3.122646E2,6.438411E1,9.075741E0,1.7038368E1,3.4524576E2,3.7855353E2,8.4242096E2,3.310241E2,1.1763999E2,1.5848183E2,3.360499E2,7.4386888E0,1.7168542E2,8.178061E2,1.3136335E3,1.7090916E1,2.4605078E2,5.492012E2,2.7868903E2,3.357556E1,5.8958824E1,5.425285E0],"tree_param":{"num_deleted":"0","num_feature":"45","num_nodes":"53","size_leaf_vector":"1"}},{"base_weights":[1.0409674E-3,-3.249867E-2,2.050347E-1,4.2076033E-1,-2.3233226E-1,5.3571427E-1,-3.8218132E-1,-3.9967224E-1,2.2266483E-1,4.8458716E-1,1.0577413E0,-6.2613225E-1,3.4657487E-1,-1.7020386E-1,-4.8252216E-1,7.077111E-1,-2.1153483E-1,5.4158175E-1,1.9928569E-2,7.493887E-1,1.2860167E0,-3.2328766E-2,-2.804826E-1,6.8486685E-1,-5.311277E-1,-3.5645995E-1,1.0717552E-1,-4.888103E-1,5.3951245E-2,1.0272559E0,5.099583E-1,6.763158E-1,-3.5240766E-1,3.2068517E-2,1.2306051E-2,-4.647923E-3,2.2757998E-2,4.3794084E-2,-1.1929102E-3,2.7767336E-2,7.058197E-2,6.272115E-2,-2.9566033E-2,6.660345E-2,7.4622766E-3,-3.0790433E-2,1.3893022E-2,-2.4234597E-2,-7.7686044E-3,2.0600246E-2,-9.825208E-3,-3.0650988E-2,-2.0900212E-2,5.8184113E-2,-1.7404888E-2,1.7642293E-2,5.23878E-2,6.638991E-2,-9.038991E-3,-1.7647566E-3,-3.0399567E-2],"categories":[],"categories_nodes":[],"categories_segments":[],"categories_sizes":[],"default_left":[0,0,0,0,0,0,0,0,0,0,0,0,0,0,0,0,0,0,0,0,0,0,0,0,0,0,0,0,0,0,0,0,0,0,0,0,0,0,0,0,0,0,0,0,0,0,0,0,0,0,0,0,0,0,0,0,0,0,0,0,0],"id":8,"left_children":[1,-1,3,5,7,9,11,13,15,17,19,21,23,25,27,29,31,33,35,37,39,-1,41,43,45,47,49,51,-1,53,55,57,59,-1,-1,-1,-1,-1,-1,-1,-1,-1,-1,-1,-1,-1,-1,-1,-1,-1,-1,-1,-1,-1,-1,-1,-1,-1,-1,-1,-1],"loss_changes":[1.3124648E3,0E0,7.1044824E2,4.6587286E2,1.8960295E2,1.15957886E2,1.12943474E2,3.4102264E1,1.4147147E2,1.0623804E2,2.4576904E1,2.528595E0,4.8101807E1,2.538078E1,1.3860535E1,1.8219254E1,4.4599457E1,1.04862305E2,2.2010305E1,1.729612E1,1.7729065E1,0E0,1.6137964E1,3.916478E1,3.5960855E0,7.087841E0,1.8436968E1,1.0673889E1,0E0,2.3409363E1,1.5526432E1,2.8238451E1,2.454847E1,0E0,0E0,0E0,0E0,0E0,0E0,0E0,0E0,0E0,0E0,0E0,0E0,0E0,0E0,0E0,0E0,0E0,0E0,0E0,0E0,0E0,0E0,0E0,0E0,0E0,0E0,0E0,0E0],"parents":[2147483647,0,0,2,2,3,3,4,4,5,5,6,6,7,7,8,8,9,9,10,10,11,11,12,12,13,13,14,14,15,15,16,16,17,17,18,18,19,19,20,20,22,22,23,23,24,24,25,25,26,26,27,27,29,29,30,30,31,31,32,32],"right_children":[2,-1,4,6,8,10,12,14,16,18,20,22,24,26,28,30,32,34,36,38,40,-1,42,44,46,48,50,52,-1,54,56,58,60,-1,-1,-1,-1,-1,-1,-1,-1,-1,-1,-1,-1,-1,-1,-1,-1,-1,-1,-1,-1,-1,-1,-1,-1,-1,-1,-1,-1],"split_conditions":[6E1,-3.249867E-2,5.625E-1,2.01E2,3.5549717E1,3.052183E1,6.2E2,5.8064514E-1,6.25E-1,5.416667E-1,-5.776742E2,-5.061418E2,2.6550342E2,9.404023E0,1.56E3,-3.1652057E2,2E0,1.0734E2,1.6477684E1,7E0,3E0,-3.2328766E-2,-4.9494843E2,1.2288E2,-7.7165656E2,2.3030968E2,5E0,1.9039973E2,5.3951245E-2,2.01E2,6.624408E1,1.0075E2,6.666667E-1,3.2068517E-2,1.2306051E-2,-4.647923E-3,2.2757998E-2,4.3794084E-2,-1.1929102E-3,2.7767336E-2,7.058197E-2,6.272115E-2,-2.9566033E-2,6.660345E-2,7.4622766E-3,-3.0790433E-2,1.3893022E-2,-2.4234597E-2,-7.7686044E-3,2.0600246E-2,-9.825208E-3,-3.0650988E-2,-2.0900212E-2,5.8184113E-2,-1.7404888E-2,1.7642293E-2,5.23878E-2,6.638991E-2,-9.038991E-3,-1.7647566E-3,-3.0399567E-2],"split_indices":[44,0,34,29,38,38,29,34,34,34,40,40,39,38,21,24,2,35,38,2,2,0,40,35,40,39,2,39,0,21,38,27,34,0,0,0,0,0,0,0,0,0,0,0,0,0,0,0,0,0,0,0,0,0,0,0,0,0,0,0,0],"split_type":[0,0,0,0,0,0,0,0,0,0,0,0,0,0,0,0,0,0,0,0,0,0,0,0,0,0,0,0,0,0,0,0,0,0,0,0,0,0,0,0,0,0,0,0,0,0,0,0,0,0,0,0,0,0,0,0,0,0,0,0,0],"sum_hessian":[9.880475E3,2.3557239E3,7.524751E3,5.0400366E3,2.4847144E3,4.409968E3,6.30069E2,1.8175817E3,6.671326E2,4.02097E3,3.8899777E2,4.7277533E2,1.5729367E2,4.8537866E2,1.332203E3,3.1506448E2,3.5206818E2,3.580395E3,4.4057492E2,1.7005066E2,2.1894711E2,4.4336523E2,2.9410105E1,1.1426262E2,4.3031044E1,2.91125E2,1.9425366E2,1.3285472E3,3.655725E0,1.162694E2,1.9879507E2,4.6684998E1,3.0538318E2,2.6734377E3,9.069574E2,3.5017358E2,9.040136E1,1.464711E2,2.357957E1,3.4295135E1,1.8465198E2,3.6595602E0,2.5750544E1,4.997246E1,6.429015E1,3.994539E1,3.085654E0,1.7452484E2,1.1660017E2,9.740896E1,9.6844696E1,4.7424304E2,8.5430426E2,1.0638776E2,9.881645E0,1.5713228E2,4.16628E1,2.6231392E1,2.0453606E1,1.3817572E2,1.6720744E2],"tree_param":{"num_deleted":"0","num_feature":"45","num_nodes":"61","size_leaf_vector":"1"}},{"base_weights":[-1.1028331E-3,-3.972021E-1,8.8981384E-1,-5.476071E-1,-1.3633454E-1,-3.2688912E-2,1.0714016E0,7.320325E-2,-5.55833E-1,-3.2553405E-2,5.2240737E-2,1.2910784E0,6.4183354E-1,-3.9284858E-1,-6.0242945E-1,7.732729E-1,-1.6808708E-1,1.3970537E0,6.415508E-1,-1.6566409E-2,1.1924262E0,4.9532956E-1,-4.490249E-1,-6.2066376E-1,-5.0704867E-1,1.0486436E0,1.4311805E-1,8.0081955E-2,-2.2854333E-1,1.5163436E0,1.0151694E0,8.184473E-2,-7.865604E-2,2.728601E-1,-4.371004E-1,8.2913846E-1,1.4545807E0,6.3939266E-2,-2.2308499E-2,-2.6631821E-2,-5.1693446E-3,-3.106741E-2,-0E0,5.725872E-2,-2.6042646E-2,5.811095E-2,-1.9959576E-2,4.67613E-2,-2.0870198E-3,-3.348187E-3,-3.1358436E-2,7.815518E-2,5.8721542E-2,2.178177E-2,6.347887E-2,-3.1731866E-2,4.754896E-2,2.3036199E-2,-1.9032162E-2,3.5249904E-2,-2.599748E-2,6.609889E-3,5.0891258E-2,3.1975262E-2,7.850191E-2],"categories":[],"categories_nodes":[],"categories_segments":[],"categories_sizes":[],"default_left":[0,0,0,0,0,0,0,0,0,0,0,0,0,0,0,0,0,0,0,0,0,0,0,0,0,0,0,0,0,0,0,0,0,0,0,0,0,0,0,0,0,0,0,0,0,0,0,0,0,0,0,0,0,0,0,0,0,0,0,0,0,0,0,0,0],"id":9,"left_children":[1,3,5,7,9,-1,11,-1,13,-1,15,17,19,21,23,25,27,29,31,33,35,37,39,41,43,45,47,-1,49,51,53,-1,55,57,59,61,63,-1,-1,-1,-1,-1,-1,-1,-1,-1,-1,-1,-1,-1,-1,-1,-1,-1,-1,-1,-1,-1,-1,-1,-1,-1,-1,-1,-1],"loss_changes":[3.4807751E3,2.674414E2,8.524524E2,7.2818115E1,2.431497E2,0E0,2.537727E2,0E0,3.178894E1,0E0,2.9155426E2,1.2074194E2,3.3561487E2,4.867935E1,4.630371E0,7.365167E1,1.5027217E2,6.584741E1,1.846526E2,5.1732178E1,4.4415283E1,4.430738E1,2.590596E1,1.2713623E0,1.3487198E1,5.0327423E1,2.0074583E1,0E0,8.714986E1,1.36501465E1,5.3152985E1,0E0,8.7047775E1,3.1172508E1,1.7073578E1,2.7635406E1,2.4094421E1,0E0,0E0,0E0,0E0,0E0,0E0,0E0,0E0,0E0,0E0,0E0,0E0,0E0,0E0,0E0,0E0,0E0,0E0,0E0,0E0,0E0,0E0,0E0,0E0,0E0,0E0,0E0,0E0],"parents":[2147483647,0,0,1,1,2,2,3,3,4,4,6,6,8,8,10,10,11,11,12,12,13,13,14,14,15,15,16,16,17,17,18,18,19,19,20,20,21,21,22,22,23,23,24,24,25,25,26,26,28,28,29,29,30,30,32,32,33,33,34,34,35,35,36,36],"right_children":[2,4,6,8,10,-1,12,-1,14,-1,16,18,20,22,24,26,28,30,32,34,36,38,40,42,44,46,48,-1,50,52,54,-1,56,58,60,62,64,-1,-1,-1,-1,-1,-1,-1,-1,-1,-1,-1,-1,-1,-1,-1,-1,-1,-1,-1,-1,-1,-1,-1,-1,-1,-1,-1,-1],"split_conditions":[5.625E-1,5.2E-1,3E1,-1.1041977E4,6E1,-3.2688912E-2,2.8375326E1,7.320325E-2,2.0499867E2,-3.2553405E-2,2.029337E2,2.01E2,6.25E-1,-7.054348E2,2E1,8.090068E0,-8.989913E1,2.3030968E2,-1.1041977E4,4.6627792E1,6.666667E-1,4.6153846E-1,4.878049E-1,4.2964066E2,-1.1050588E3,2.01E2,1.7085431E2,8.0081955E-2,2.01E2,2.1E1,5.8064514E-1,8.184473E-2,8E2,2.01E2,1.6043831E2,-6.760076E2,2E0,6.3939266E-2,-2.2308499E-2,-2.6631821E-2,-5.1693446E-3,-3.106741E-2,-0E0,5.725872E-2,-2.6042646E-2,5.811095E-2,-1.9959576E-2,4.67613E-2,-2.0870198E-3,-3.348187E-3,-3.1358436E-2,7.815518E-2,5.8721542E-2,2.178177E-2,6.347887E-2,-3.1731866E-2,4.754896E-2,2.3036199E-2,-1.9032162E-2,3.5249904E-2,-2.599748E-2,6.609889E-3,5.0891258E-2,3.1975262E-2,7.850191E-2],"split_indices":[34,34,44,38,44,0,38,0,39,0,39,37,34,40,1,38,38,39,38,38,34,41,34,31,40,37,39,0,37,1,34,0,37,37,31,40,2,0,0,0,0,0,0,0,0,0,0,0,0,0,0,0,0,0,0,0,0,0,0,0,0,0,0,0,0],"split_type":[0,0,0,0,0,0,0,0,0,0,0,0,0,0,0,0,0,0,0,0,0,0,0,0,0,0,0,0,0,0,0,0,0,0,0,0,0,0,0,0,0,0,0,0,0,0,0,0,0,0,0,0,0,0,0,0,0,0,0,0,0,0,0,0,0],"sum_hessian":[9.86028E3,6.826781E3,3.0334995E3,4.3275728E3,2.4992078E3,3.1846072E2,2.7150388E3,1.5934668E1,4.311638E3,6.694979E2,1.8297098E3,1.7929614E3,9.2207745E2,9.651925E2,3.3464458E3,4.2760486E2,1.402105E3,1.5388198E3,2.5414163E2,4.2039722E2,5.0168024E2,5.595637E1,9.0923615E2,2.79572E3,5.507257E2,2.9609357E2,1.3151128E2,4.4358227E1,1.3577467E3,1.1670239E3,3.7179593E2,1.0591419E2,1.4822745E2,2.4872745E2,1.7166977E2,2.1456868E2,2.8711157E2,3.0440397E1,2.5515972E1,7.300941E2,1.7914203E2,2.792853E3,2.8670073E0,2.9048915E0,5.478208E2,2.752421E2,2.0851465E1,2.3859816E1,1.0765147E2,9.686874E2,3.8905936E2,1.0190523E3,1.4797159E2,1.1567703E2,2.561189E2,9.706647E1,5.1160976E1,1.942431E2,5.4484344E1,1.0186892E1,1.6148288E2,4.7003998E1,1.6756468E2,3.7783844E1,2.4932771E2],"tree_param":{"num_deleted":"0","num_feature":"45","num_nodes":"65","size_leaf_vector":"1"}},{"base_weights":[1.9846298E-3,1.6639652E0,-3.261667E-2,1.0159436E-2,8.324376E-2],"categories":[],"categories_nodes":[],"categories_segments":[],"categories_sizes":[],"default_left":[0,0,0,0,0],"id":10,"left_children":[1,3,-1,-1,-1],"loss_changes":[1.071167E4,2.0878906E0,0E0,0E0,0E0],"parents":[2147483647,0,0,1,1],"right_children":[2,4,-1,-1,-1],"split_conditions":[6E1,1.4E2,-3.261667E-2,1.0159436E-2,8.324376E-2],"split_indices":[44,29,0,0,0],"split_type":[0,0,0,0,0],"sum_hessian":[9.845679E3,2.7805938E3,7.0650845E3,2.3522682E0,2.7782415E3],"tree_param":{"num_deleted":"0","num_feature":"45","num_nodes":"5","size_leaf_vector":"1"}},{"base_weights":[-2.7428218E-3,-2.711558E-1,1.005048E0,-3.2516584E-2,-1.2495162E-1,1.5367382E0,1.5148547E-2,2.2608702E-1,-3.5479894E-1,-3.0316908E-2,1.5995034E0,-3.2323357E-2,3.8697112E-1,3.698767E-1,2.5640447E-2,-1.5232272E-1,-4.833237E-1,-2.9238103E-2,1.6430048E0,-3.1541143E-2,6.2072843E-1,1.8038762E-1,5.258886E-1,-1.8454458E-1,2.3479103E-1,-4.0904137E-1,-6.589956E-2,-5.699935E-1,-3.3738315E-1,8.228197E-2,1.8089449E-2,-1.6609666E-1,8.7550986E-1,1.7215159E-2,-1.3976178E-2,4.0978584E-3,3.65587E-2,3.333655E-2,-1.5765904E-2,-1.0907969E-2,2.0823848E-2,-2.2581099E-2,4.4962656E-2,2.1733824E-2,-5.958962E-3,-2.8993083E-2,1.0261511E-2,-1.9734988E-2,2.3538743E-3,3.498656E-2,-3.0396415E-2,5.6339074E-2,1.1722703E-2],"categories":[],"categories_nodes":[],"categories_segments":[],"categories_sizes":[],"default_left":[0,0,0,0,0,0,0,0,0,0,0,0,0,0,0,0,0,0,0,0,0,0,0,0,0,0,0,0,0,0,0,0,0,0,0,0,0,0,0,0,0,0,0,0,0,0,0,0,0,0,0,0,0],"id":11,"left_children":[1,3,5,-1,7,9,11,13,15,-1,17,-1,19,21,23,25,27,-1,29,-1,31,33,35,37,39,41,43,45,47,-1,-1,49,51,-1,-1,-1,-1,-1,-1,-1,-1,-1,-1,-1,-1,-1,-1,-1,-1,-1,-1,-1,-1],"loss_changes":[2.6570974E3,4.2954596E2,1.0864658E3,0E0,4.5228082E2,1.8316675E2,1.7852975E2,6.3689537E1,8.76871E1,0E0,1.2656079E2,0E0,1.1150036E2,3.757794E1,4.0984604E1,2.8989065E1,2.5340546E1,0E0,2.1313477E0,0E0,7.6797226E1,4.445923E1,6.369742E1,5.1861797E1,3.8803238E1,1.9002563E1,2.6381622E1,1.0320496E1,1.7359665E1,0E0,0E0,3.680993E1,4.5141556E1,0E0,0E0,0E0,0E0,0E0,0E0,0E0,0E0,0E0,0E0,0E0,0E0,0E0,0E0,0E0,0E0,0E0,0E0,0E0,0E0],"parents":[2147483647,0,0,1,1,2,2,4,4,5,5,6,6,7,7,8,8,10,10,12,12,13,13,14,14,15,15,16,16,18,18,20,20,21,21,22,22,23,23,24,24,25,25,26,26,27,27,28,28,31,31,32,32],"right_children":[2,4,6,-1,8,10,12,14,16,-1,18,-1,20,22,24,26,28,-1,30,-1,32,34,36,38,40,42,44,46,48,-1,-1,50,52,-1,-1,-1,-1,-1,-1,-1,-1,-1,-1,-1,-1,-1,-1,-1,-1,-1,-1,-1,-1],"split_conditions":[2.01E2,6E1,6.2E2,-3.2516584E-2,5.121951E-1,3E1,3E0,-5.963016E2,5.625E-1,-3.0316908E-2,-1.1041977E4,-3.2323357E-2,-8.989913E1,-7.309235E2,1.2E1,2.0085239E2,2.2088658E2,-2.9238103E-2,-1.4447433E2,-3.1541143E-2,1.1834E2,-4.4670377E2,2.1241718E2,5.1871822E1,4.4117647E-1,6.25E-1,2E0,7.7622185E1,-4.570121E2,8.228197E-2,1.8089449E-2,8E0,1.51E3,1.7215159E-2,-1.3976178E-2,4.0978584E-3,3.65587E-2,3.333655E-2,-1.5765904E-2,-1.0907969E-2,2.0823848E-2,-2.2581099E-2,4.4962656E-2,2.1733824E-2,-5.958962E-3,-2.8993083E-2,1.0261511E-2,-1.9734988E-2,2.3538743E-3,3.498656E-2,-3.0396415E-2,5.6339074E-2,1.1722703E-2],"split_indices":[37,44,37,0,34,44,2,40,34,0,38,0,38,40,1,39,39,0,32,0,35,32,39,36,41,41,2,38,40,0,0,1,37,0,0,0,0,0,0,0,0,0,0,0,0,0,0,0,0,0,0,0,0],"split_type":[0,0,0,0,0,0,0,0,0,0,0,0,0,0,0,0,0,0,0,0,0,0,0,0,0,0,0,0,0,0,0,0,0,0,0,0,0,0,0,0,0,0,0,0,0,0,0,0,0,0,0,0,0],"sum_hessian":[9.820104E3,7.7562715E3,2.0638318E3,2.1555652E3,5.6007065E3,1.3416182E3,7.2221356E2,2.2152625E3,3.3854438E3,3.7454967E1,1.3041632E3,2.5883118E2,4.6338242E2,1.2874963E3,9.2776624E2,1.3177452E3,2.0676985E3,2.4755947E1,1.2794072E3,8.551379E1,3.7786862E2,5.847669E2,7.0272943E2,4.616638E2,4.6610248E2,3.285478E2,9.8919745E2,1.2914856E3,7.76213E2,1.2758245E3,3.5826912E0,9.211855E1,2.8575006E2,4.322868E2,1.5248012E2,2.2386136E2,4.7886807E2,5.987631E1,4.0178748E2,1.3253465E2,3.335678E2,3.1983017E2,8.717612E0,9.287858E1,8.9631885E2,1.276387E3,1.5098678E1,6.765918E2,9.9621185E1,3.0348185E1,6.1770367E1,2.0363634E2,8.211374E1],"tree_param":{"num_deleted":"0","num_feature":"45","num_nodes":"53","size_leaf_vector":"1"}},{"base_weights":[1.6452633E-3,-2.8181037E-1,1.988335E-1,-3.762807E-1,-1.5171246E-1,4.148195E-1,-2.6160932E-1,-5.478857E-1,-3.254698E-1,-1.981158E-2,-4.18794E-1,6.9274735E-1,-3.208273E-1,-4.0277994E-1,1.931281E-1,-0E0,-5.590653E-1,-1.861973E-1,-4.244353E-1,-2.074887E-1,1.9389151E-1,1.1539686E-1,-5.5697465E-1,1.3283399E-1,7.7012616E-1,-6.0685223E-1,2.953996E-1,-4.7032207E-1,-4.452922E-2,7.6693887E-1,-3.25721E-1,-1.8809948E-2,4.431191E-2,-4.3830737E-1,-6.0247654E-1,-3.0960768E-1,6.018911E-1,-4.8940694E-1,-2.7423984E-1,-2.4995399E-1,1.151697E0,7.669408E-2,8.3915615E-1,-3.087154E-2,8.008517E-1,-3.1690326E-2,2.3220008E-2,9.904996E-1,-7.4408464E-2,6.388029E-1,1.1563543E0,3.9882007E-1,-6.1847126E-1,-1.7302063E-1,7.260494E-1,-2.0687418E-1,-5.6124556E-1,8.42989E-1,-3.1680042E-1,5.746939E-1,1.3920071E0,5.3465455E-3,-2.9707057E-2,-2.9828418E-2,-9.826883E-3,-3.0370269E-2,-0E0,2.1806775E-2,-1.821599E-2,4.060914E-3,7.3669486E-2,-9.001943E-3,-2.7698487E-2,1.3002478E-2,-2.1835834E-2,1.3146375E-3,-1.943664E-2,-1.3808559E-2,7.37577E-2,1.3126421E-2,-8.401071E-3,5.5724382E-2,-0E0,7.903901E-2,8.846353E-3,-3.0560214E-2,7.940545E-2,-4.542604E-3,5.704583E-2,1.2472699E-2,-1.6618904E-2,3.4271475E-2,-6.5631084E-3,6.4617805E-2,3.906104E-2,-1.7056398E-2,5.5377435E-2,-3.2237098E-2,-1.3679691E-2,3.56584E-2,-2.247066E-2,4.4123854E-2,-2.8518578E-2,2.119048E-2,-1.3404687E-2,-2.871329E-2,4.807479E-2,7.594566E-2,-2.5501171E-2,-3.2552734E-3,-2.6920473E-2,-2.9305695E-4,3.542892E-2,7.920717E-2,-7.591447E-4,-1.2176149E-2,2.2827966E-2],"categories":[],"categories_nodes":[],"categories_segments":[],"categories_sizes":[],"default_left":[0,0,0,0,0,0,0,0,0,0,0,0,0,0,0,0,0,0,0,0,0,0,0,0,0,0,0,0,0,0,0,0,0,0,0,0,0,0,0,0,0,0,0,0,0,0,0,0,0,0,0,0,0,0,0,0,0,0,0,0,0,0,0,0,0,0,0,0,0,0,0,0,0,0,0,0,0,0,0,0,0,0,0,0,0,0,0,0,0,0,0,0,0,0,0,0,0,0,0,0,0,0,0,0,0,0,0,0,0,0,0,0,0,0,0,0,0],"id":12,"left_children":[1,3,5,7,9,11,13,15,17,19,21,23,25,27,29,31,33,35,37,39,41,43,45,47,49,51,53,55,57,59,61,-1,-1,63,65,67,69,71,73,75,77,79,81,-1,83,-1,85,87,89,91,93,95,97,99,101,103,105,107,109,111,113,115,-1,-1,-1,-1,-1,-1,-1,-1,-1,-1,-1,-1,-1,-1,-1,-1,-1,-1,-1,-1,-1,-1,-1,-1,-1,-1,-1,-1,-1,-1,-1,-1,-1,-1,-1,-1,-1,-1,-1,-1,-1,-1,-1,-1,-1,-1,-1,-1,-1,-1,-1,-1,-1,-1,-1],"loss_changes":[5.5041486E2,4.9266083E1,5.779864E2,1.9579346E1,5.98213E1,8.0938495E2,1.1936217E2,3.307663E0,2.4482513E1,4.5992226E1,4.185121E1,1.2377869E2,1.9184547E2,3.3994247E1,1.3172722E2,4.846928E0,1.6682434E0,7.389939E1,9.638901E0,3.54252E1,3.9868805E1,5.9581364E1,2.0295685E1,6.315846E1,1.25551636E2,9.280518E0,7.010616E1,2.7914001E1,5.54144E1,2.2651955E1,2.0920092E1,0E0,0E0,5.009842E0,1.1404419E0,2.7080357E1,4.5580738E1,1.4036835E1,2.8550611E1,2.3014915E1,9.972101E0,2.085406E1,1.8893723E1,0E0,2.84394E1,0E0,5.557589E1,1.1971359E1,2.4003736E1,6.82334E1,2.9419434E1,5.9667664E0,5.8509216E0,4.123522E1,3.7796722E1,1.2125409E1,1.8415222E1,5.115245E1,9.473614E0,1.3155525E1,1.3642258E1,1.2124052E1,0E0,0E0,0E0,0E0,0E0,0E0,0E0,0E0,0E0,0E0,0E0,0E0,0E0,0E0,0E0,0E0,0E0,0E0,0E0,0E0,0E0,0E0,0E0,0E0,0E0,0E0,0E0,0E0,0E0,0E0,0E0,0E0,0E0,0E0,0E0,0E0,0E0,0E0,0E0,0E0,0E0,0E0,0E0,0E0,0E0,0E0,0E0,0E0,0E0,0E0,0E0,0E0,0E0,0E0,0E0],"parents":[2147483647,0,0,1,1,2,2,3,3,4,4,5,5,6,6,7,7,8,8,9,9,10,10,11,11,12,12,13,13,14,14,15,15,16,16,17,17,18,18,19,19,20,20,21,21,22,22,23,23,24,24,25,25,26,26,27,27,28,28,29,29,30,30,33,33,34,34,35,35,36,36,37,37,38,38,39,39,40,40,41,41,42,42,44,44,46,46,47,47,48,48,49,49,50,50,51,51,52,52,53,53,54,54,55,55,56,56,57,57,58,58,59,59,60,60,61,61],"right_children":[2,4,6,8,10,12,14,16,18,20,22,24,26,28,30,32,34,36,38,40,42,44,46,48,50,52,54,56,58,60,62,-1,-1,64,66,68,70,72,74,76,78,80,82,-1,84,-1,86,88,90,92,94,96,98,100,102,104,106,108,110,112,114,116,-1,-1,-1,-1,-1,-1,-1,-1,-1,-1,-1,-1,-1,-1,-1,-1,-1,-1,-1,-1,-1,-1,-1,-1,-1,-1,-1,-1,-1,-1,-1,-1,-1,-1,-1,-1,-1,-1,-1,-1,-1,-1,-1,-1,-1,-1,-1,-1,-1,-1,-1,-1,-1,-1,-1],"split_conditions":[3E0,5.910602E1,5.625E-1,5.349803E1,2.01E2,2.01E2,3.8320507E1,3E-1,-6.52913E2,1.3E1,6E0,1.866064E2,7E2,2E1,6.25E-1,2.950391E1,4.6153846E-1,-6.7744525E2,-4.6647598E2,6.667443E1,6.3231678E1,1.0138837E2,2.3E1,5.4040424E1,-5.249087E2,1.69E2,-6.7404193E2,5.8064514E-1,4E0,2.533819E2,6.666667E-1,-1.8809948E-2,4.431191E-2,1.7E1,3.4083417E2,1.77E2,1.98E2,4.2857143E-1,-4.275269E2,4.7826087E-1,1.9754988E2,1.0395E2,2.1E1,-3.087154E-2,1.539103E2,-3.1690326E-2,2E0,-6.5491296E2,5.102041E-1,-5.432444E2,1.7E1,3.1614062E2,-5.0090244E2,2.3927283E2,7E0,4.9389404E1,1.7395E2,-5.0558508E2,5.294118E-1,5.4897144E1,6.3375076E1,5.7200115E1,-2.9707057E-2,-2.9828418E-2,-9.826883E-3,-3.0370269E-2,-0E0,2.1806775E-2,-1.821599E-2,4.060914E-3,7.3669486E-2,-9.001943E-3,-2.7698487E-2,1.3002478E-2,-2.1835834E-2,1.3146375E-3,-1.943664E-2,-1.3808559E-2,7.37577E-2,1.3126421E-2,-8.401071E-3,5.5724382E-2,-0E0,7.903901E-2,8.846353E-3,-3.0560214E-2,7.940545E-2,-4.542604E-3,5.704583E-2,1.2472699E-2,-1.6618904E-2,3.4271475E-2,-6.5631084E-3,6.4617805E-2,3.906104E-2,-1.7056398E-2,5.5377435E-2,-3.2237098E-2,-1.3679691E-2,3.56584E-2,-2.247066E-2,4.4123854E-2,-2.8518578E-2,2.119048E-2,-1.3404687E-2,-2.871329E-2,4.807479E-2,7.594566E-2,-2.5501171E-2,-3.2552734E-3,-2.6920473E-2,-2.9305695E-4,3.542892E-2,7.920717E-2,-7.591447E-4,-1.2176149E-2,2.2827966E-2],"split_indices":[2,36,34,36,37,37,38,33,40,1,1,39,37,1,34,30,41,40,40,36,36,36,1,36,40,29,40,34,2,39,34,0,0,1,31,29,37,41,32,34,39,27,1,0,36,0,2,40,34,40,1,31,40,39,2,28,27,40,33,36,36,38,0,0,0,0,0,0,0,0,0,0,0,0,0,0,0,0,0,0,0,0,0,0,0,0,0,0,0,0,0,0,0,0,0,0,0,0,0,0,0,0,0,0,0,0,0,0,0,0,0,0,0,0,0,0,0],"split_type":[0,0,0,0,0,0,0,0,0,0,0,0,0,0,0,0,0,0,0,0,0,0,0,0,0,0,0,0,0,0,0,0,0,0,0,0,0,0,0,0,0,0,0,0,0,0,0,0,0,0,0,0,0,0,0,0,0,0,0,0,0,0,0,0,0,0,0,0,0,0,0,0,0,0,0,0,0,0,0,0,0,0,0,0,0,0,0,0,0,0,0,0,0,0,0,0,0,0,0,0,0,0,0,0,0,0,0,0,0,0,0,0,0,0,0,0,0],"sum_hessian":[9.844194E3,4.0372722E3,5.8069224E3,2.334472E3,1.7028003E3,3.9536265E3,1.853296E3,5.265922E2,1.8078796E3,1.1425574E3,5.60243E2,2.870098E3,1.0835284E3,1.4152635E3,4.3803244E2,1.0346301E1,5.16246E2,7.5549664E2,1.052383E3,6.095978E2,5.3295966E2,1.14460976E2,4.4578198E2,3.499261E2,2.5201719E3,7.406116E2,3.4291693E2,1.1890642E3,2.2619934E2,2.0800302E2,2.3002942E2,7.9720325E0,2.3742683E0,1.454252E2,3.7082074E2,6.548063E2,1.006904E2,7.291295E2,3.2325348E2,5.930685E2,1.652928E1,4.5358835E2,7.937127E1,5.506229E1,5.939869E1,3.9425064E2,5.1531353E1,6.709783E1,2.8282825E2,1.8856317E3,6.3454016E2,7.206176E0,7.334054E2,1.6427237E2,1.7864456E2,3.0817795E2,8.808863E2,5.168708E1,1.7451225E2,1.6262506E2,4.5377964E1,1.03039116E2,1.2699031E2,8.486803E1,6.055718E1,3.6788593E2,2.9348238E0,4.317917E1,6.116271E2,6.475997E1,3.593043E1,1.2853668E2,6.005929E2,7.438084E1,2.4887263E2,1.9765125E2,3.9541724E2,2.8213398E0,1.370794E1,2.5888867E2,1.9469969E2,5.9343727E1,2.0027542E1,2.4679646E1,3.4719044E1,3.730629E1,1.4225064E1,7.8844233E0,5.921341E1,1.245688E2,1.5825945E2,1.7787966E3,1.06835106E2,4.6113602E2,1.7340414E2,3.6877964E0,3.5183797E0,6.7853033E2,5.487507E1,3.787272E1,1.2639965E2,1.6032396E2,1.8320599E1,2.5496819E1,2.8268112E2,8.749788E2,5.9074326E0,3.455084E1,1.7136242E1,8.397758E1,9.0534676E1,3.0134125E1,1.3249094E2,4.00178E1,5.3601675E0,6.628927E1,3.6749847E1],"tree_param":{"num_deleted":"0","num_feature":"45","num_nodes":"117","size_leaf_vector":"1"}},{"base_weights":[6.7270594E-3,-3.8292402E-1,8.434971E-1,-5.3470623E-1,-1.22483976E-1,-3.2313045E-2,1.0071564E0,6.848086E-2,-5.4272145E-1,-3.2197084E-2,6.2432796E-2,1.1997825E0,5.768376E-1,-3.6566254E-1,-5.895828E-1,7.263746E-1,-1.4811447E-1,1.3593802E0,8.475666E-1,-6.969035E-2,1.0840147E0,6.1654234E-1,-4.225325E-1,-6.125029E-1,-4.978136E-1,9.439576E-1,-3.394749E-2,7.400483E-2,-2.1383128E-1,1.3812915E0,4.557009E-1,7.672248E-2,6.656511E-1,2.0605789E-1,-4.278678E-1,7.4695057E-1,1.3322513E0,7.261073E-2,-1.8406104E-2,-2.5636528E-2,-2.9741044E-3,-3.066116E-2,-0E0,-2.6999457E-2,-1.3698592E-2,5.2271307E-2,-2.0823259E-2,4.9819842E-2,-9.459408E-3,-1.2758147E-4,-2.3047699E-2,7.596977E-2,6.370108E-2,-2.7411282E-2,6.314498E-2,4.4335626E-2,-1.6411377E-2,-2.9171259E-5,4.1143432E-2,-2.6194423E-2,-0E0,4.385814E-2,-1.0539964E-2,3.052235E-2,7.1863316E-2],"categories":[],"categories_nodes":[],"categories_segments":[],"categories_sizes":[],"default_left":[0,0,0,0,0,0,0,0,0,0,0,0,0,0,0,0,0,0,0,0,0,0,0,0,0,0,0,0,0,0,0,0,0,0,0,0,0,0,0,0,0,0,0,0,0,0,0,0,0,0,0,0,0,0,0,0,0,0,0,0,0,0,0,0,0],"id":13,"left_children":[1,3,5,7,9,-1,11,-1,13,-1,15,17,19,21,23,25,27,29,31,33,35,37,39,41,43,45,47,-1,49,51,53,-1,55,57,59,61,63,-1,-1,-1,-1,-1,-1,-1,-1,-1,-1,-1,-1,-1,-1,-1,-1,-1,-1,-1,-1,-1,-1,-1,-1,-1,-1,-1,-1],"loss_changes":[3.2130327E3,2.6528986E2,7.648789E2,6.587561E1,2.3942516E2,0E0,2.3166504E2,0E0,3.418396E1,0E0,2.564978E2,1.0603296E2,2.883431E2,5.0284416E1,5.857666E0,7.3609955E1,1.4888527E2,2.4266846E1,7.350256E1,3.85231E1,3.8154297E1,4.2084953E1,2.7338089E1,1.4144287E0,5.738373E0,4.8683746E1,1.5924189E1,0E0,6.970402E1,1.4025635E1,3.0218443E1,0E0,1.0831145E2,2.836338E1,6.7475243E0,2.7411339E1,1.8449219E1,0E0,0E0,0E0,0E0,0E0,0E0,0E0,0E0,0E0,0E0,0E0,0E0,0E0,0E0,0E0,0E0,0E0,0E0,0E0,0E0,0E0,0E0,0E0,0E0,0E0,0E0,0E0,0E0],"parents":[2147483647,0,0,1,1,2,2,3,3,4,4,6,6,8,8,10,10,11,11,12,12,13,13,14,14,15,15,16,16,17,17,18,18,19,19,20,20,21,21,22,22,23,23,24,24,25,25,26,26,28,28,29,29,30,30,32,32,33,33,34,34,35,35,36,36],"right_children":[2,4,6,8,10,-1,12,-1,14,-1,16,18,20,22,24,26,28,30,32,34,36,38,40,42,44,46,48,-1,50,52,54,-1,56,58,60,62,64,-1,-1,-1,-1,-1,-1,-1,-1,-1,-1,-1,-1,-1,-1,-1,-1,-1,-1,-1,-1,-1,-1,-1,-1,-1,-1,-1,-1],"split_conditions":[5.625E-1,5.2E-1,3E1,-1.1041977E4,6E1,-3.2313045E-2,2.9954388E1,6.848086E-2,2.029337E2,-3.2197084E-2,2.029337E2,2.2871335E2,6.25E-1,-7.054348E2,5E-1,1.2876793E1,-6.7490746E1,2.01E2,-4.8118233E1,4.6627792E1,6.666667E-1,4.6153846E-1,4.878049E-1,5.195523E2,2E1,6.757196E1,1.6375415E2,7.400483E-2,1.0095404E1,1.8432777E2,1.4E1,7.672248E-2,6.4494606E1,-4.125532E2,6E0,6.944228E1,2E0,7.261073E-2,-1.8406104E-2,-2.5636528E-2,-2.9741044E-3,-3.066116E-2,-0E0,-2.6999457E-2,-1.3698592E-2,5.2271307E-2,-2.0823259E-2,4.9819842E-2,-9.459408E-3,-1.2758147E-4,-2.3047699E-2,7.596977E-2,6.370108E-2,-2.7411282E-2,6.314498E-2,4.4335626E-2,-1.6411377E-2,-2.9171259E-5,4.1143432E-2,-2.6194423E-2,-0E0,4.385814E-2,-1.0539964E-2,3.052235E-2,7.1863316E-2],"split_indices":[34,34,44,38,44,0,38,0,39,0,39,39,34,40,34,38,38,29,38,38,34,41,34,23,1,36,39,0,38,39,1,0,36,40,2,38,2,0,0,0,0,0,0,0,0,0,0,0,0,0,0,0,0,0,0,0,0,0,0,0,0,0,0,0,0],"split_type":[0,0,0,0,0,0,0,0,0,0,0,0,0,0,0,0,0,0,0,0,0,0,0,0,0,0,0,0,0,0,0,0,0,0,0,0,0,0,0,0,0,0,0,0,0,0,0,0,0,0,0,0,0,0,0,0,0,0,0,0,0,0,0,0,0],"sum_hessian":[9.849779E3,6.7206997E3,3.1290796E3,4.243562E3,2.4771375E3,3.088377E2,2.820242E3,1.6100615E1,4.2274614E3,6.478805E2,1.829257E3,1.9448975E3,8.7534436E2,8.906286E2,3.3368328E3,4.3981497E2,1.389442E3,1.3335117E3,6.1138574E2,3.8513275E2,4.9021164E2,4.718684E1,8.434418E2,2.6565444E3,6.802885E2,3.4209225E2,9.772271E1,5.1939E1,1.337503E3,1.3003717E3,3.3140076E1,1.2432744E2,4.870583E2,2.1729692E2,1.6783582E2,2.1216248E2,2.7804916E2,2.528549E1,2.1901352E1,6.7383026E2,1.696115E2,2.6540635E3,2.4809165E0,5.681763E2,1.1211224E2,3.1912094E2,2.2971334E1,1.095512E1,8.6767586E1,7.232221E2,6.142809E2,5.549353E2,7.454364E2,1.4780078E1,1.8359997E1,3.9902478E2,8.803352E1,1.636568E2,5.3640118E1,1.3586937E2,3.1966448E1,1.8737762E2,2.478485E1,3.765065E1,2.4039851E2],"tree_param":{"num_deleted":"0","num_feature":"45","num_nodes":"65","size_leaf_vector":"1"}},{"base_weights":[2.4627752E-5,1.5376753E0,-3.2289937E-2,1.1650715E-3,7.692682E-2],"categories":[],"categories_nodes":[],"categories_segments":[],"categories_sizes":[],"default_left":[0,0,0,0,0],"id":14,"left_children":[1,3,-1,-1,-1],"loss_changes":[9.75747E3,2.9365234E0,0E0,0E0,0E0],"parents":[2147483647,0,0,1,1],"right_children":[2,4,-1,-1,-1],"split_conditions":[6E1,1.69E2,-3.2289937E-2,1.1650715E-3,7.692682E-2],"split_indices":[44,37,0,0,0],"split_type":[0,0,0,0,0],"sum_hessian":[9.821303E3,2.9043364E3,6.9169663E3,2.0123038E0,2.9023242E3],"tree_param":{"num_deleted":"0","num_feature":"45","num_nodes":"5","size_leaf_vector":"1"}},{"base_weights":[-1.2259623E-3,-2.6220682E-1,9.528939E-1,-3.2141548E-2,-1.1805122E-1,1.4376223E0,3.5184365E-2,1.3072166E-1,-4.259848E-1,-2.996332E-2,1.4947659E0,-3.1261215E-1,3.5060152E-1,2.715026E-1,-6.7312725E-2,-5.314218E-1,-2.6626816E-1,-2.8737515E-2,7.6635495E-2,4.616301E-2,-5.8164346E-1,-3.0693293E-2,5.234816E-1,3.6812508E-1,-6.560181E-2,-3.1999478E-1,2.6673932E-2,-5.405317E-1,1.4667873E-1,-3.1573433E-1,9.0354085E-2,8.958932E-1,-3.7691757E-1,-6.253369E-1,4.0536676E-2,-3.0654723E-2,7.57411E-1,1.6680932E-2,6.8717465E-2,-7.41309E-3,5.4182716E-2,3.7213464E-3,-2.028998E-2,-9.306488E-3,8.809085E-3,-8.072774E-3,-2.7666394E-2,6.516406E-2,-2.0527495E-2,2.8828026E-3,-1.8383913E-2,8.301538E-2,-7.508244E-3,7.415743E-2,-2.6783515E-2,5.055928E-2,-2.4185358E-2,-4.4151526E-3,-3.2229263E-2,5.1801085E-2,-5.8854492E-3],"categories":[],"categories_nodes":[],"categories_segments":[],"categories_sizes":[],"default_left":[0,0,0,0,0,0,0,0,0,0,0,0,0,0,0,0,0,0,0,0,0,0,0,0,0,0,0,0,0,0,0,0,0,0,0,0,0,0,0,0,0,0,0,0,0,0,0,0,0,0,0,0,0,0,0,0,0,0,0,0,0],"id":15,"left_children":[1,3,5,-1,7,9,11,13,15,-1,17,19,21,23,25,27,29,-1,-1,31,33,-1,35,37,39,41,43,45,47,49,51,53,55,57,-1,-1,59,-1,-1,-1,-1,-1,-1,-1,-1,-1,-1,-1,-1,-1,-1,-1,-1,-1,-1,-1,-1,-1,-1,-1,-1],"loss_changes":[2.4487178E3,4.2323724E2,9.386782E2,0E0,4.2964206E2,1.6305542E2,8.0582504E1,8.659333E1,4.1520966E1,0E0,1.0783765E2,3.3971027E1,6.492003E1,5.929756E1,3.0767033E1,9.656708E0,1.7853401E1,0E0,0E0,5.5022266E1,1.3099243E1,0E0,8.838254E1,4.7243164E1,3.830299E1,1.2103767E1,2.9956882E1,6.6763E0,1.4925275E1,1.7304146E1,4.748426E1,4.4933395E1,1.5753754E1,1.5412216E0,0E0,0E0,6.746399E1,0E0,0E0,0E0,0E0,0E0,0E0,0E0,0E0,0E0,0E0,0E0,0E0,0E0,0E0,0E0,0E0,0E0,0E0,0E0,0E0,0E0,0E0,0E0,0E0],"parents":[2147483647,0,0,1,1,2,2,4,4,5,5,6,6,7,7,8,8,10,10,11,11,12,12,13,13,14,14,15,15,16,16,19,19,20,20,22,22,23,23,24,24,25,25,26,26,27,27,28,28,29,29,30,30,31,31,32,32,33,33,36,36],"right_children":[2,4,6,-1,8,10,12,14,16,-1,18,20,22,24,26,28,30,-1,-1,32,34,-1,36,38,40,42,44,46,48,50,52,54,56,58,-1,-1,60,-1,-1,-1,-1,-1,-1,-1,-1,-1,-1,-1,-1,-1,-1,-1,-1,-1,-1,-1,-1,-1,-1,-1,-1],"split_conditions":[2.01E2,6E1,6.2E2,-3.2141548E-2,5.416667E-1,3E1,1.236E2,5E-1,2.2088658E2,-2.996332E-2,-1.1041977E4,1E1,-8.989913E1,-5.249087E2,-1.5089563E1,7.7622185E1,-4.570121E2,-2.8737515E-2,7.6635495E-2,9.8E2,1.7395E2,-3.0693293E-2,3E1,-5.40067E2,-3.4016782E2,6E0,1E1,1.86E2,-3.8875555E2,-8.981867E2,1.92E2,2.9188394E2,4.19959E1,1.75E2,4.0536676E-2,-3.0654723E-2,-5.199068E2,1.6680932E-2,6.8717465E-2,-7.41309E-3,5.4182716E-2,3.7213464E-3,-2.028998E-2,-9.306488E-3,8.809085E-3,-8.072774E-3,-2.7666394E-2,6.516406E-2,-2.0527495E-2,2.8828026E-3,-1.8383913E-2,8.301538E-2,-7.508244E-3,7.415743E-2,-2.6783515E-2,5.055928E-2,-2.4185358E-2,-4.4151526E-3,-3.2229263E-2,5.1801085E-2,-5.8854492E-3],"split_indices":[37,44,37,0,34,44,35,34,39,0,38,1,38,40,38,38,40,0,0,37,27,0,44,40,40,1,1,37,40,40,37,39,20,29,0,0,40,0,0,0,0,0,0,0,0,0,0,0,0,0,0,0,0,0,0,0,0,0,0,0,0],"split_type":[0,0,0,0,0,0,0,0,0,0,0,0,0,0,0,0,0,0,0,0,0,0,0,0,0,0,0,0,0,0,0,0,0,0,0,0,0,0,0,0,0,0,0,0,0,0,0,0,0,0,0,0,0,0,0,0,0,0,0,0,0],"sum_hessian":[9.831312E3,7.7212803E3,2.110031E3,2.118162E3,5.603118E3,1.3796373E3,7.3039374E2,3.0990168E3,2.5041013E3,3.689205E1,1.3427452E3,3.466218E2,3.837719E2,1.8123884E3,1.2866284E3,1.503669E3,1.0004325E3,2.342887E1,1.3193164E3,1.4844998E2,1.9817181E2,5.7119354E1,3.2665256E2,1.4096477E3,4.0274072E2,3.4896106E2,9.376673E2,1.4848638E3,1.8805202E1,8.800011E2,1.2043142E2,4.899446E1,9.945552E1,1.9355873E2,4.6130843E0,5.483766E1,2.718149E2,1.3659646E3,4.3683037E1,3.7774832E2,2.4992414E1,6.1357075E1,2.87604E2,3.853461E2,5.523212E2,5.0651966E1,1.4342118E3,5.5353713E0,1.3269831E1,1.0626766E2,7.737334E2,1.4706913E1,1.0572451E2,3.4939E1,1.4055461E1,5.560281E0,9.389524E1,7.983004E0,1.8557573E2,2.0632967E2,6.548524E1],"tree_param":{"num_deleted":"0","num_feature":"45","num_nodes":"61","size_leaf_vector":"1"}},{"base_weights":[2.2053995E-4,-2.7792314E-1,1.9075523E-1,-1.5911925E-1,-3.7776387E-1,3.356755E-1,-3.0876115E-1,-2.5146013E-1,4.3581054E-1,-3.991377E-1,7.910461E-2,-2.5052407E-1,4.719321E-1,-6.03361E-1,2.1968856E-1,-3.1259292E-1,2.5317004E-1,-4.9575076E-1,7.4746054E-1,-4.4332463E-1,-2.4334417E-1,9.5324457E-1,-3.0779844E-2,7.1436726E-2,-2.8050628E-1,3.5853875E-1,6.996564E-1,-3.2610353E-2,-6.131261E-1,4.887217E-1,-3.1628486E-2,-3.1922873E-2,-2.5727397E-1,-3.75797E-1,5.935849E-1,-5.719358E-1,3.8555842E-2,1.0452609E0,-3.7947655E-1,-3.6918625E-1,-5.481058E-1,1.0857809E0,-2.775694E-1,1.4392895E0,-2.4892787E-2,1.0495714E0,-3.1754526E-1,1.0577574E-1,4.9795824E-1,5.0498873E-1,1.3335639E0,-2.6175607E-2,5.440147E-2,-3.1728312E-2,-3.4705478E-1,1.1199449E0,2.182014E-1,8.231206E-3,-1.8632066E-2,-3.0162787E-2,2.556637E-3,4.985117E-2,-1.5776822E-2,7.9708017E-4,-3.0149443E-2,-2.6230631E-2,6.0481984E-2,4.834118E-2,-2.960818E-2,-2.182817E-2,-7.610181E-3,-2.8997703E-2,-1.5715908E-2,6.392498E-2,5.0633604E-4,-2.12129E-2,-2.3699442E-3,7.739717E-2,-0E0,7.2789066E-2,-1.267591E-2,5.9124897E-3,-1.8674774E-2,2.0249737E-2,1.51562E-3,3.2505676E-2,8.535154E-3,3.7512038E-2,1.7413346E-2,3.6559504E-2,7.146414E-2,7.5949244E-2,-3.1130422E-2,6.474333E-2,-2.5165105E-2,-6.6316533E-3,4.9322955E-2],"categories":[],"categories_nodes":[],"categories_segments":[],"categories_sizes":[],"default_left":[0,0,0,0,0,0,0,0,0,0,0,0,0,0,0,0,0,0,0,0,0,0,0,0,0,0,0,0,0,0,0,0,0,0,0,0,0,0,0,0,0,0,0,0,0,0,0,0,0,0,0,0,0,0,0,0,0,0,0,0,0,0,0,0,0,0,0,0,0,0,0,0,0,0,0,0,0,0,0,0,0,0,0,0,0,0,0,0,0,0,0,0,0,0,0,0,0],"id":16,"left_children":[1,3,5,7,9,11,13,15,17,19,21,23,25,27,29,31,33,35,37,39,41,43,-1,-1,45,47,49,51,53,55,-1,-1,57,59,61,63,-1,65,67,69,71,73,75,77,-1,79,81,83,85,87,89,-1,-1,-1,91,93,95,-1,-1,-1,-1,-1,-1,-1,-1,-1,-1,-1,-1,-1,-1,-1,-1,-1,-1,-1,-1,-1,-1,-1,-1,-1,-1,-1,-1,-1,-1,-1,-1,-1,-1,-1,-1,-1,-1,-1,-1],"loss_changes":[5.208258E2,4.6992676E1,4.2253717E2,1.0064934E2,2.1381622E1,3.6167236E2,2.0473996E2,4.9113434E1,7.224343E1,1.3699829E1,6.0527634E1,4.321422E1,9.378711E1,4.339142E0,1.08434326E2,2.4755508E1,3.729373E1,6.808097E0,6.3354378E1,1.1633545E1,2.1333162E1,3.3120872E1,0E0,0E0,4.172149E1,8.617334E1,1.4791821E2,1.0299801E1,3.7949524E0,6.0181503E1,0E0,0E0,5.9387512E1,6.2579956E0,4.227728E1,1.4155674E0,0E0,3.968721E1,1.2375132E1,1.3476456E1,4.100006E0,1.7559481E0,1.5082832E1,5.911255E0,0E0,1.3449205E1,2.0207565E1,1.9565609E1,7.812387E1,3.4863403E1,1.3211182E1,0E0,0E0,0E0,3.6374847E1,3.2002914E1,6.928187E1,0E0,0E0,0E0,0E0,0E0,0E0,0E0,0E0,0E0,0E0,0E0,0E0,0E0,0E0,0E0,0E0,0E0,0E0,0E0,0E0,0E0,0E0,0E0,0E0,0E0,0E0,0E0,0E0,0E0,0E0,0E0,0E0,0E0,0E0,0E0,0E0,0E0,0E0,0E0,0E0],"parents":[2147483647,0,0,1,1,2,2,3,3,4,4,5,5,6,6,7,7,8,8,9,9,10,10,11,11,12,12,13,13,14,14,15,15,16,16,17,17,18,18,19,19,20,20,21,21,24,24,25,25,26,26,27,27,28,28,29,29,32,32,33,33,34,34,35,35,37,37,38,38,39,39,40,40,41,41,42,42,43,43,45,45,46,46,47,47,48,48,49,49,50,50,54,54,55,55,56,56],"right_children":[2,4,6,8,10,12,14,16,18,20,22,24,26,28,30,32,34,36,38,40,42,44,-1,-1,46,48,50,52,54,56,-1,-1,58,60,62,64,-1,66,68,70,72,74,76,78,-1,80,82,84,86,88,90,-1,-1,-1,92,94,96,-1,-1,-1,-1,-1,-1,-1,-1,-1,-1,-1,-1,-1,-1,-1,-1,-1,-1,-1,-1,-1,-1,-1,-1,-1,-1,-1,-1,-1,-1,-1,-1,-1,-1,-1,-1,-1,-1,-1,-1],"split_conditions":[3E0,-6.52913E2,2.01E2,-6.7744525E2,1.02E3,1.866064E2,7E2,2.0872736E1,1.95E2,3.1046673E1,6E0,-5.3030544E1,2.4314607E2,1.69E2,3.0549698E2,-9.719233E2,1.3E1,-6.5413904E2,2.01E2,1.0212E2,1E0,1.2E3,-3.0779844E-2,7.1436726E-2,1.83E2,-6.4733246E2,-5.941166E2,3.2412082E2,-5.0090244E2,1.1834E2,-3.1628486E-2,-3.1922873E-2,-8.428499E2,3.010919E2,2.8104926E2,-5.0830467E1,3.8555842E-2,4E0,-6.663986E2,5.9701298E1,-4.423892E2,2.2441328E2,1.9E2,5.625E-1,-2.4892787E-2,6.1538464E-1,5.308908E1,4E0,1.7E1,5.644812E1,1.94E2,-2.6175607E-2,5.440147E-2,-3.1728312E-2,-4.9494843E2,8E0,1.51E3,8.231206E-3,-1.8632066E-2,-3.0162787E-2,2.556637E-3,4.985117E-2,-1.5776822E-2,7.9708017E-4,-3.0149443E-2,-2.6230631E-2,6.0481984E-2,4.834118E-2,-2.960818E-2,-2.182817E-2,-7.610181E-3,-2.8997703E-2,-1.5715908E-2,6.392498E-2,5.0633604E-4,-2.12129E-2,-2.3699442E-3,7.739717E-2,-0E0,7.2789066E-2,-1.267591E-2,5.9124897E-3,-1.8674774E-2,2.0249737E-2,1.51562E-3,3.2505676E-2,8.535154E-3,3.7512038E-2,1.7413346E-2,3.6559504E-2,7.146414E-2,7.5949244E-2,-3.1130422E-2,6.474333E-2,-2.5165105E-2,-6.6316533E-3,4.9322955E-2],"split_indices":[2,40,37,40,37,39,37,38,37,38,1,38,39,29,39,40,1,40,37,35,1,37,0,0,37,40,40,31,40,35,0,0,40,31,39,38,0,1,32,36,40,23,21,41,0,33,36,2,1,36,37,0,0,0,40,2,37,0,0,0,0,0,0,0,0,0,0,0,0,0,0,0,0,0,0,0,0,0,0,0,0,0,0,0,0,0,0,0,0,0,0,0,0,0,0,0,0],"split_type":[0,0,0,0,0,0,0,0,0,0,0,0,0,0,0,0,0,0,0,0,0,0,0,0,0,0,0,0,0,0,0,0,0,0,0,0,0,0,0,0,0,0,0,0,0,0,0,0,0,0,0,0,0,0,0,0,0,0,0,0,0,0,0,0,0,0,0,0,0,0,0,0,0,0,0,0,0,0,0,0,0,0,0,0,0,0,0,0,0,0,0,0,0,0,0,0,0],"sum_hessian":[9.824461E3,3.9925583E3,5.8319023E3,1.8277961E3,2.1647622E3,4.5217144E3,1.3101882E3,1.5839426E3,2.4385356E2,2.0693005E3,9.5461655E1,8.5179535E2,3.669919E3,8.4164886E2,4.6853934E2,1.4143544E3,1.6958821E2,6.043121E1,1.8342236E2,1.6066997E3,4.626009E2,4.226066E1,5.3201E1,1.3012331E1,8.38783E2,2.454878E3,1.2150408E3,1.5164978E1,8.264839E2,3.5721634E2,1.1132301E2,2.0088573E2,1.2134686E3,5.896498E1,1.1062323E2,5.8410374E1,2.0208356E0,1.4554878E2,3.7873573E1,9.490286E2,6.576711E2,9.703675E0,4.5289722E2,3.1927433E1,1.0333223E1,2.0877956E1,8.179051E2,8.7522577E2,1.5796523E3,9.3292834E2,2.8211246E2,1.1596805E1,3.5681732E0,7.6054926E2,6.5934616E1,1.04725365E2,2.5249097E2,2.5945486E2,9.540138E2,3.8694527E1,2.0270454E1,7.686822E1,3.3755013E1,2.1715624E0,5.623881E1,1.30919E1,1.324569E2,3.8787656E0,3.3994804E1,7.2085986E2,2.2816876E2,5.743314E2,8.333967E1,7.5152254E0,2.18845E0,2.7425476E2,1.7864244E2,2.9798697E1,2.1287358E0,1.603023E1,4.8477254E0,9.179014E1,7.261149E2,1.7318243E2,7.0204333E2,1.0759124E3,5.0373993E2,3.595338E2,5.7339453E2,4.1767113E1,2.4034534E2,7.088956E0,5.884566E1,9.518123E1,9.544142E0,1.7402443E2,7.846653E1],"tree_param":{"num_deleted":"0","num_feature":"45","num_nodes":"97","size_leaf_vector":"1"}},{"base_weights":[2.7301165E-3,-2.7373135E-1,4.8781428E-1,3.8588274E-1,-3.583403E-1,9.757639E-1,2.7015984E-1,-3.4878828E-2,6.8416876E-1,7.092706E-2,-3.8454086E-1,5.130161E-1,1.1598897E0,7.160859E-2,2.0869842E-1,-2.2461118E-1,3.543585E-1,1.0429838E-1,9.0513724E-1,-3.2228696E-1,-6.129378E-1,1.2718928E-1,8.2667154E-1,1.2377484E0,-2.63826E-1,3.3588523E-1,-4.7455806E-1,1.6020566E-1,-4.0016112E-1,6.1219877E-1,-1.961338E-1,5.0729996E-1,-3.1559578E-1,9.958444E-1,-1.8123592E-1,-4.690442E-1,-1.7644618E-1,-6.193827E-1,-1.4610044E-2,7.5891453E-1,-2.1198401E-1,5.1197815E-1,7.293792E-2,1.3065445E0,8.267173E-1,3.7234034E-2,-4.9474624E-1,-4.644477E-2,5.9627396E-1,-3.1864874E-2,2.90025E-2,-1.3759266E-2,7.209294E-2,2.0884212E-2,-2.6981575E-2,-2.2937216E-2,3.868554E-2,-2.5498843E-2,1.3893812E-2,6.727638E-3,5.5483878E-2,3.0534822E-2,-2.1554418E-2,6.627079E-2,3.6109146E-2,4.4496663E-2,-2.3540227E-2,-1.7674325E-2,-2.7859896E-2,-1.8519733E-2,1.2945853E-3,-1.1440164E-2,-3.1172762E-2,4.457753E-2,-2.4532257E-2,5.7244588E-2,-1.7708506E-2,3.1063357E-2,-1.7780595E-2,-2.1595117E-2,3.544327E-2,6.585106E-2,-0E0,1.0687622E-2,5.700819E-2,-2.999006E-2,1.996059E-2,1.0198428E-2,-1.1927375E-2,3.4911253E-2,-6.204701E-3,6.377722E-2,-1.3343804E-2],"categories":[],"categories_nodes":[],"categories_segments":[],"categories_sizes":[],"default_left":[0,0,0,0,0,0,0,0,0,0,0,0,0,0,0,0,0,0,0,0,0,0,0,0,0,0,0,0,0,0,0,0,0,0,0,0,0,0,0,0,0,0,0,0,0,0,0,0,0,0,0,0,0,0,0,0,0,0,0,0,0,0,0,0,0,0,0,0,0,0,0,0,0,0,0,0,0,0,0,0,0,0,0,0,0,0,0,0,0,0,0,0,0],"id":17,"left_children":[1,3,5,7,9,11,13,15,17,-1,19,21,23,-1,25,27,29,31,33,35,37,39,41,43,45,47,49,51,53,55,57,59,61,63,65,67,69,71,73,75,77,79,-1,81,83,-1,85,87,89,-1,91,-1,-1,-1,-1,-1,-1,-1,-1,-1,-1,-1,-1,-1,-1,-1,-1,-1,-1,-1,-1,-1,-1,-1,-1,-1,-1,-1,-1,-1,-1,-1,-1,-1,-1,-1,-1,-1,-1,-1,-1,-1,-1],"loss_changes":[1.3140836E3,3.485347E2,3.7668E2,8.945079E1,2.5814844E2,9.134961E1,1.7453377E2,2.1927261E1,5.262413E1,0E0,7.668707E1,3.7590324E1,8.7781006E1,0E0,2.0382849E2,1.3815947E1,1.4187041E1,2.0332819E1,3.0371521E1,9.137082E1,4.15448E0,3.1644424E1,3.201036E1,1.7748535E1,1.0356583E1,1.9712889E2,3.0486534E1,3.6786007E1,1.641091E1,1.2460283E1,5.1259274E0,1.2872902E1,6.670088E0,2.213446E1,8.20213E0,2.091269E1,8.48607E1,1.1194153E0,7.2666345E0,2.3364141E1,1.1718666E1,2.293375E1,0E0,8.219482E0,2.051593E1,0E0,3.9274921E0,3.869241E1,8.6890564E1,0E0,3.4751465E1,0E0,0E0,0E0,0E0,0E0,0E0,0E0,0E0,0E0,0E0,0E0,0E0,0E0,0E0,0E0,0E0,0E0,0E0,0E0,0E0,0E0,0E0,0E0,0E0,0E0,0E0,0E0,0E0,0E0,0E0,0E0,0E0,0E0,0E0,0E0,0E0,0E0,0E0,0E0,0E0,0E0,0E0],"parents":[2147483647,0,0,1,1,2,2,3,3,4,4,5,5,6,6,7,7,8,8,10,10,11,11,12,12,14,14,15,15,16,16,17,17,18,18,19,19,20,20,21,21,22,22,23,23,24,24,25,25,26,26,27,27,28,28,29,29,30,30,31,31,32,32,33,33,34,34,35,35,36,36,37,37,38,38,39,39,40,40,41,41,43,43,44,44,46,46,47,47,48,48,50,50],"right_children":[2,4,6,8,10,12,14,16,18,-1,20,22,24,-1,26,28,30,32,34,36,38,40,42,44,46,48,50,52,54,56,58,60,62,64,66,68,70,72,74,76,78,80,-1,82,84,-1,86,88,90,-1,92,-1,-1,-1,-1,-1,-1,-1,-1,-1,-1,-1,-1,-1,-1,-1,-1,-1,-1,-1,-1,-1,-1,-1,-1,-1,-1,-1,-1,-1,-1,-1,-1,-1,-1,-1,-1,-1,-1,-1,-1,-1,-1],"split_conditions":[5.714286E-1,1.8512164E2,1.9645523E2,4.5454547E-1,-1.3829232E3,3E0,-8.989913E1,1.01E2,3E0,7.092706E-2,2.01E2,1.4E1,2.01E2,7.160859E-2,2.01E2,-4.3589383E2,-4.4464206E2,5.1111114E-1,2.01E2,3E0,-2.2209656E2,4.4117647E-1,2E0,5.5341305E1,8.849523E1,3E0,9.9E2,-4.41595E2,5E0,2E0,4E0,5.9231125E1,1.5537721E2,-9.674036E0,1.00927376E2,2.2832314E2,4.5454547E-1,-1.0563616E3,2E0,1.1E1,7.393612E1,9.322E1,7.293792E-2,3.038033E2,1.9E2,3.7234034E-2,8E-1,2.950391E1,2.692193E2,-3.1864874E-2,2E0,-1.3759266E-2,7.209294E-2,2.0884212E-2,-2.6981575E-2,-2.2937216E-2,3.868554E-2,-2.5498843E-2,1.3893812E-2,6.727638E-3,5.5483878E-2,3.0534822E-2,-2.1554418E-2,6.627079E-2,3.6109146E-2,4.4496663E-2,-2.3540227E-2,-1.7674325E-2,-2.7859896E-2,-1.8519733E-2,1.2945853E-3,-1.1440164E-2,-3.1172762E-2,4.457753E-2,-2.4532257E-2,5.7244588E-2,-1.7708506E-2,3.1063357E-2,-1.7780595E-2,-2.1595117E-2,3.544327E-2,6.585106E-2,-0E0,1.0687622E-2,5.700819E-2,-2.999006E-2,1.996059E-2,1.0198428E-2,-1.1927375E-2,3.4911253E-2,-6.204701E-3,6.377722E-2,-1.3343804E-2],"split_indices":[26,39,39,26,40,2,38,27,2,0,37,1,37,0,37,32,40,41,37,2,32,41,2,30,15,2,37,32,1,2,2,28,39,30,23,39,26,32,2,1,15,35,0,23,29,0,26,30,39,0,2,0,0,0,0,0,0,0,0,0,0,0,0,0,0,0,0,0,0,0,0,0,0,0,0,0,0,0,0,0,0,0,0,0,0,0,0,0,0,0,0,0,0],"split_type":[0,0,0,0,0,0,0,0,0,0,0,0,0,0,0,0,0,0,0,0,0,0,0,0,0,0,0,0,0,0,0,0,0,0,0,0,0,0,0,0,0,0,0,0,0,0,0,0,0,0,0,0,0,0,0,0,0,0,0,0,0,0,0,0,0,0,0,0,0,0,0,0,0,0,0,0,0,0,0,0,0,0,0,0,0,0,0,0,0,0,0,0,0],"sum_hessian":[9.793975E3,6.238398E3,3.555577E3,7.07747E2,5.530651E3,1.093915E3,2.4616619E3,2.9363544E2,4.1411157E2,7.854418E1,5.452107E3,3.1429977E2,7.7961523E2,1.2101267E2,2.3406492E3,1.9884137E2,9.479407E1,1.15698845E2,2.9841272E2,4.289841E3,1.1622657E3,1.4291074E2,1.7138904E2,7.397718E2,3.9843445E1,1.974794E3,3.6585526E2,6.145489E1,1.3738647E2,6.502273E1,2.977134E1,5.9432148E1,5.62667E1,2.759953E2,2.2417433E1,2.1342842E3,2.155557E3,1.1489835E3,1.3282251E1,4.957472E1,9.333602E1,1.1736713E2,5.4021908E1,6.289308E2,1.1084098E2,6.1908746E0,3.365257E1,7.9994867E2,1.1748452E3,2.768465E2,8.900875E1,4.67529E1,1.4701993E1,1.8912165E1,1.1847431E2,7.6331263E0,5.7389603E1,1.8455193E1,1.1316148E1,3.873807E1,2.0694075E1,4.8071146E0,5.1459587E1,1.2089159E2,1.5510371E2,3.5206304E0,1.8896803E1,9.3037665E2,1.2039076E3,1.1010087E3,1.0545481E3,1.4303745E1,1.1346797E3,3.6114905E0,9.67076E0,3.7101364E1,1.2473352E1,1.2233222E1,8.11028E1,1.940628E1,9.7960846E1,6.2367145E2,5.2593217E0,3.918034E1,7.1660645E1,3.1203096E1,2.4494731E0,3.4608594E2,4.5386273E2,1.0298499E3,1.4499536E2,1.6128191E1,7.288056E1],"tree_param":{"num_deleted":"0","num_feature":"45","num_nodes":"93","size_leaf_vector":"1"}},{"base_weights":[-2.8510573E-3,7.2315574E-1,-3.19625E-2,8.365551E-1,6.959738E-2,9.413622E-1,4.626389E-1,3.5554972E-1,-2.878913E-1,1.0977165E0,8.443018E-1,2.2496894E-1,1.1294968E0,4.949937E-1,-3.021319E-2,-4.8071638E-2,-3.0549968E-2,1.1608523E0,6.471494E-1,1.0415142E0,3.3591646E-1,6.032578E-1,-2.8915605E-1,1.2521261E0,-2.2594874E-1,1.2802243E-2,7.720227E-1,-4.5278165E-1,2.7562237E-1,6.014948E-2,3.252408E-2,-1.4952584E-2,3.7763517E-2,6.048123E-2,4.8612535E-2,4.7460403E-2,-3.1731706E-2,3.809126E-2,5.7858955E-3,-2.4641348E-2,1.5385951E-2,3.491301E-2,7.0058696E-2,3.9020102E-2,-2.6985187E-2,5.225273E-2,-1.160905E-2,4.851338E-2,-5.048036E-3,1.9966746E-2,-2.5318539E-2,7.1046255E-3,4.456976E-2],"categories":[],"categories_nodes":[],"categories_segments":[],"categories_sizes":[],"default_left":[0,0,0,0,0,0,0,0,0,0,0,0,0,0,0,0,0,0,0,0,0,0,0,0,0,0,0,0,0,0,0,0,0,0,0,0,0,0,0,0,0,0,0,0,0,0,0,0,0,0,0,0,0],"id":18,"left_children":[1,3,-1,5,7,9,11,13,15,17,19,21,23,25,-1,27,-1,29,31,33,35,37,39,41,43,45,47,49,51,-1,-1,-1,-1,-1,-1,-1,-1,-1,-1,-1,-1,-1,-1,-1,-1,-1,-1,-1,-1,-1,-1,-1,-1],"loss_changes":[4.513809E3,3.3762036E2,0E0,1.5077979E2,6.9498276E1,4.3211426E1,1.3449934E2,5.114815E1,2.2968624E1,3.0399536E1,1.8733044E2,1.2385075E2,3.8294067E1,4.3895103E1,0E0,2.3403948E1,0E0,1.918628E1,1.5742081E1,1.2329102E1,3.166895E2,2.7724213E1,3.3173325E1,1.3996246E1,7.015354E0,3.2178802E1,3.69685E1,4.096796E0,7.3194914E0,0E0,0E0,0E0,0E0,0E0,0E0,0E0,0E0,0E0,0E0,0E0,0E0,0E0,0E0,0E0,0E0,0E0,0E0,0E0,0E0,0E0,0E0,0E0,0E0],"parents":[2147483647,0,0,1,1,3,3,4,4,5,5,6,6,7,7,8,8,9,9,10,10,11,11,12,12,13,13,15,15,17,17,18,18,19,19,20,20,21,21,22,22,23,23,24,24,25,25,26,26,27,27,28,28],"right_children":[2,4,-1,6,8,10,12,14,16,18,20,22,24,26,-1,28,-1,30,32,34,36,38,40,42,44,46,48,50,52,-1,-1,-1,-1,-1,-1,-1,-1,-1,-1,-1,-1,-1,-1,-1,-1,-1,-1,-1,-1,-1,-1,-1,-1],"split_conditions":[3E0,5.8064514E-1,-3.19625E-2,6.176106E1,2E0,1E1,6.5E2,6.824648E1,1.3E1,5.6E-1,2E0,2.01E2,5.416667E-1,-6.657841E2,-3.021319E-2,4.4117647E-1,-3.0549968E-2,5.8064514E-1,1.91E2,5.484016E1,1.4E1,1.5E1,5.7E2,6E0,9.3E2,-9.567668E2,6.8E-1,3.552855E1,5.8064514E-1,6.014948E-2,3.252408E-2,-1.4952584E-2,3.7763517E-2,6.048123E-2,4.8612535E-2,4.7460403E-2,-3.1731706E-2,3.809126E-2,5.7858955E-3,-2.4641348E-2,1.5385951E-2,3.491301E-2,7.0058696E-2,3.9020102E-2,-2.6985187E-2,5.225273E-2,-1.160905E-2,4.851338E-2,-5.048036E-3,1.9966746E-2,-2.5318539E-2,7.1046255E-3,4.456976E-2],"split_indices":[2,34,0,36,2,1,37,36,1,34,2,37,34,40,0,41,0,41,37,36,1,1,37,1,37,40,34,20,41,0,0,0,0,0,0,0,0,0,0,0,0,0,0,0,0,0,0,0,0,0,0,0,0],"split_type":[0,0,0,0,0,0,0,0,0,0,0,0,0,0,0,0,0,0,0,0,0,0,0,0,0,0,0,0,0,0,0,0,0,0,0,0,0,0,0,0,0,0,0,0,0,0,0,0,0,0,0,0,0],"sum_hessian":[9.765606E3,4.561158E3,5.204448E3,3.8856338E3,6.755243E2,3.0315356E3,8.540982E2,3.760969E2,2.994274E2,1.1512385E3,1.8802971E3,6.322036E2,2.2189458E2,3.2968845E2,4.640842E1,1.7407166E2,1.2535573E2,1.00600867E3,1.4522993E2,1.3525402E3,5.277569E2,3.6457684E2,2.6762677E2,2.0396306E2,1.7931526E1,1.21720825E2,2.0796764E2,7.768735E1,9.638431E1,9.258727E2,8.013593E1,1.4056935E1,1.31173E2,3.8294406E2,9.695961E2,3.237428E2,2.0401413E2,2.734796E2,9.109724E1,2.0042303E2,6.720375E1,4.6371063E1,1.57592E2,3.1761181E0,1.4755409E1,2.2485611E1,9.9235214E1,1.6976562E2,3.8202003E1,3.2810948E0,7.440626E1,8.189824E1,1.4486072E1],"tree_param":{"num_deleted":"0","num_feature":"45","num_nodes":"53","size_leaf_vector":"1"}},{"base_weights":[2.9061665E-3,-2.56603E-1,9.024261E-1,-3.1775128E-2,-1.17776416E-1,1.3448118E0,2.9357892E-2,1.19781606E-1,-4.1586447E-1,-2.964193E-2,1.3960228E0,-3.171965E-2,3.6829212E-1,2.5927946E-1,-7.71659E-2,-5.20558E-1,-2.5862342E-1,-2.8456438E-2,1.4303193E0,-3.087659E-2,5.802062E-1,3.6142733E-2,3.6987925E-1,4.4558832E-1,-1.2814355E-1,-5.5585676E-1,-3.5136852E-1,-1.5642942E-1,-4.2448303E-1,7.1630016E-2,-0E0,-6.4315796E-2,8.3112633E-1,6.9736205E-2,2.362969E-4,1.7118732E-2,5.893932E-2,3.125028E-3,5.860399E-2,-4.885334E-3,-3.0030578E-2,-0E0,-2.7971169E-2,-3.0427703E-3,-2.4872636E-2,5.0926935E-3,-1.5678743E-2,-0E0,-2.395376E-2,4.648848E-2,-2.2748088E-2,5.4158695E-2,8.364732E-3],"categories":[],"categories_nodes":[],"categories_segments":[],"categories_sizes":[],"default_left":[0,0,0,0,0,0,0,0,0,0,0,0,0,0,0,0,0,0,0,0,0,0,0,0,0,0,0,0,0,0,0,0,0,0,0,0,0,0,0,0,0,0,0,0,0,0,0,0,0,0,0,0,0],"id":19,"left_children":[1,3,5,-1,7,9,11,13,15,-1,17,-1,19,21,23,25,27,-1,29,-1,31,33,35,37,39,41,43,45,47,-1,-1,49,51,-1,-1,-1,-1,-1,-1,-1,-1,-1,-1,-1,-1,-1,-1,-1,-1,-1,-1,-1,-1],"loss_changes":[2.2878723E3,3.9950732E2,8.468511E2,0E0,3.9461862E2,1.4654565E2,1.669135E2,8.5296265E1,4.0023956E1,0E0,9.772803E1,0E0,1.0346648E2,4.4600426E1,3.4208042E1,7.9924927E0,1.6418892E1,0E0,4.121826E0,0E0,6.620505E1,2.5140326E1,2.5416061E1,3.0902473E1,1.6409693E1,2.6185913E0,1.0834553E1,2.5328472E1,8.938263E0,0E0,0E0,4.5330204E1,4.8066025E1,0E0,0E0,0E0,0E0,0E0,0E0,0E0,0E0,0E0,0E0,0E0,0E0,0E0,0E0,0E0,0E0,0E0,0E0,0E0,0E0],"parents":[2147483647,0,0,1,1,2,2,4,4,5,5,6,6,7,7,8,8,10,10,12,12,13,13,14,14,15,15,16,16,18,18,20,20,21,21,22,22,23,23,24,24,25,25,26,26,27,27,28,28,31,31,32,32],"right_children":[2,4,6,-1,8,10,12,14,16,-1,18,-1,20,22,24,26,28,-1,30,-1,32,34,36,38,40,42,44,46,48,-1,-1,50,52,-1,-1,-1,-1,-1,-1,-1,-1,-1,-1,-1,-1,-1,-1,-1,-1,-1,-1,-1,-1],"split_conditions":[2.01E2,6E1,6.2E2,-3.1775128E-2,5.416667E-1,3E1,3E0,5E-1,2.2088658E2,-2.964193E-2,-1.1041977E4,-3.171965E-2,-8.989913E1,4.6153846E-1,2E0,4.9887703E1,5.208333E-1,-2.8456438E-2,-1.2037114E2,-3.087659E-2,1.1966E2,-9.4213983E2,2.3E1,2.4802464E2,8E0,-8.495197E2,1.9E2,5.714286E-1,1.91E2,7.1630016E-2,-0E0,-6.0758104E0,1.51E3,6.9736205E-2,2.362969E-4,1.7118732E-2,5.893932E-2,3.125028E-3,5.860399E-2,-4.885334E-3,-3.0030578E-2,-0E0,-2.7971169E-2,-3.0427703E-3,-2.4872636E-2,5.0926935E-3,-1.5678743E-2,-0E0,-2.395376E-2,4.648848E-2,-2.2748088E-2,5.4158695E-2,8.364732E-3],"split_indices":[37,44,37,0,34,44,2,34,39,0,38,0,38,41,2,30,41,0,32,0,35,32,1,39,2,24,29,26,37,0,0,38,37,0,0,0,0,0,0,0,0,0,0,0,0,0,0,0,0,0,0,0,0],"split_type":[0,0,0,0,0,0,0,0,0,0,0,0,0,0,0,0,0,0,0,0,0,0,0,0,0,0,0,0,0,0,0,0,0,0,0,0,0,0,0,0,0,0,0,0,0,0,0,0,0,0,0,0,0],"sum_hessian":[9.795585E3,7.6030103E3,2.192575E3,2.0358379E3,5.5671724E3,1.4541171E3,7.384578E2,3.0978743E3,2.469298E3,3.6645844E1,1.4174713E3,2.4853038E2,4.8992746E2,1.814541E3,1.2833331E3,1.4776528E3,9.916454E2,2.3528791E1,1.3939425E3,8.558742E1,4.0434006E2,6.037137E2,1.2108274E3,1.11780594E2,1.1715525E3,1.2163536E3,2.612992E2,6.1785583E2,3.7378955E2,1.3915093E3,2.433226E0,1.1316227E2,2.911778E2,1.1323854E1,5.9238983E2,1.1743611E3,3.6466217E1,7.5060555E1,3.6720043E1,1.1039094E3,6.764312E1,7.1186023E0,1.209235E3,8.9523125E1,1.7177606E2,2.3278073E2,3.850751E2,4.182067E1,3.3196887E2,3.0784409E1,8.237786E1,2.0958478E2,8.159301E1],"tree_param":{"num_deleted":"0","num_feature":"45","num_nodes":"53","size_leaf_vector":"1"}},{"base_weights":[5.730242E-4,-3.17173E-2,1.8517718E-1,3.242155E-1,-3.0992514E-1,-2.395255E-1,4.3822008E-1,-6.021869E-1,2.1498142E-1,2.828246E-1,-3.5679314E-1,5.469892E-1,2.7412565E-2,-6.0663587E-1,1.7039284E-2,4.686715E-1,-3.1388752E-2,9.804584E-1,6.5479726E-2,-4.0219373E-1,8.759475E-3,4.454819E-1,6.986713E-1,-5.036539E-2,7.8347963E-1,-7.119404E-2,-6.1438656E-1,9.088355E-1,2.0744988E-1,6.755941E-2,2.625525E-3,5.706915E-2,-3.0838381E-3,-2.4153158E-2,-1.0953876E-2,1.1986397E-2,-2.566574E-2,3.4017842E-2,1.601001E-2,2.9946253E-2,5.683863E-2,-1.4608505E-2,7.9919165E-3,5.0775945E-2,-1.7057305E-2,-2.6419431E-2,5.316182E-2,-3.150389E-2,-2.234902E-2,-1.5925923E-2,5.159315E-2,-4.333445E-3,4.641485E-2],"categories":[],"categories_nodes":[],"categories_segments":[],"categories_sizes":[],"default_left":[0,0,0,0,0,0,0,0,0,0,0,0,0,0,0,0,0,0,0,0,0,0,0,0,0,0,0,0,0,0,0,0,0,0,0,0,0,0,0,0,0,0,0,0,0,0,0,0,0,0,0,0,0],"id":20,"left_children":[1,-1,3,5,7,9,11,13,15,17,19,21,23,25,-1,27,-1,29,31,33,35,37,39,41,43,45,47,49,51,-1,-1,-1,-1,-1,-1,-1,-1,-1,-1,-1,-1,-1,-1,-1,-1,-1,-1,-1,-1,-1,-1,-1,-1],"loss_changes":[1.1469939E3,0E0,5.222528E2,3.809532E2,2.5557121E2,6.1298477E1,2.1987476E2,5.0325317E0,1.2785428E2,2.711007E1,1.3741783E1,5.8778687E1,6.128975E1,3.9919739E0,0E0,5.1888885E1,0E0,1.3880844E1,2.0146843E1,1.020108E1,1.1065342E1,6.7950226E1,6.577222E1,4.7909737E1,2.640316E1,1.0392747E1,1.6542358E0,2.6653473E1,6.2409164E1,0E0,0E0,0E0,0E0,0E0,0E0,0E0,0E0,0E0,0E0,0E0,0E0,0E0,0E0,0E0,0E0,0E0,0E0,0E0,0E0,0E0,0E0,0E0,0E0],"parents":[2147483647,0,0,2,2,3,3,4,4,5,5,6,6,7,7,8,8,9,9,10,10,11,11,12,12,13,13,15,15,17,17,18,18,19,19,20,20,21,21,22,22,23,23,24,24,25,25,26,26,27,27,28,28],"right_children":[2,-1,4,6,8,10,12,14,16,18,20,22,24,26,-1,28,-1,30,32,34,36,38,40,42,44,46,48,50,52,-1,-1,-1,-1,-1,-1,-1,-1,-1,-1,-1,-1,-1,-1,-1,-1,-1,-1,-1,-1,-1,-1,-1,-1],"split_conditions":[6E1,-3.17173E-2,2.01E2,1.8512164E2,6.2E2,4.5454547E-1,6.111111E-1,-1.4447433E2,3.0549698E2,-3.7648945E1,5.4468605E1,-5.963016E2,2.71853E2,1.69E2,1.7039284E-2,1.1966E2,-3.1388752E-2,1.96E2,8.456E1,1.7474446E2,1.0246E2,-7.9649554E2,2.440072E2,3.741289E1,3.1160696E2,3.2412082E2,-4.9741162E2,-3.0971771E1,1.51E3,6.755941E-2,2.625525E-3,5.706915E-2,-3.0838381E-3,-2.4153158E-2,-1.0953876E-2,1.1986397E-2,-2.566574E-2,3.4017842E-2,1.601001E-2,2.9946253E-2,5.683863E-2,-1.4608505E-2,7.9919165E-3,5.0775945E-2,-1.7057305E-2,-2.6419431E-2,5.316182E-2,-3.150389E-2,-2.234902E-2,-1.5925923E-2,5.159315E-2,-4.333445E-3,4.641485E-2],"split_indices":[44,0,37,39,37,26,26,32,39,38,30,40,39,29,0,35,0,29,35,39,35,40,39,30,39,31,40,38,37,0,0,0,0,0,0,0,0,0,0,0,0,0,0,0,0,0,0,0,0,0,0,0,0],"split_type":[0,0,0,0,0,0,0,0,0,0,0,0,0,0,0,0,0,0,0,0,0,0,0,0,0,0,0,0,0,0,0,0,0,0,0,0,0,0,0,0,0,0,0,0,0,0,0,0,0,0,0,0,0],"sum_hessian":[9.783824E3,2.202177E3,7.581647E3,5.9206626E3,1.6609846E3,9.948151E2,4.925847E3,1.067353E3,5.936315E2,1.810902E2,8.137249E2,3.8931748E3,1.0326724E3,1.0635787E3,3.774389E0,4.5741852E2,1.3621298E2,4.080183E1,1.4028836E2,7.248659E2,8.885901E1,2.3390364E3,1.5541385E3,9.374416E2,9.523081E1,1.6387094E1,1.0471915E3,1.6779982E2,2.8961868E2,2.811744E1,1.268439E1,1.3557201E1,1.2673116E2,4.986438E2,2.262221E2,6.3018593E1,2.5840414E1,8.09171E2,1.5298654E3,1.2707024E3,2.8343607E2,4.366949E2,5.007467E2,7.947226E1,1.5758553E1,1.2755582E1,3.6315134E0,9.496638E2,9.7527756E1,1.462772E1,1.531721E2,2.0644945E2,8.3169235E1],"tree_param":{"num_deleted":"0","num_feature":"45","num_nodes":"53","size_leaf_vector":"1"}},{"base_weights":[3.7689891E-3,-3.7915087E-1,7.832055E-1,-5.268516E-1,-1.308103E-1,-3.18357E-2,9.256712E-1,6.09152E-2,-5.3549004E-1,-3.1647738E-2,4.16883E-2,1.0873843E0,5.4396206E-1,-3.7382722E-1,-5.83309E-1,6.518428E-1,-1.6039239E-1,1.1714889E0,5.413352E-1,-7.7244826E-2,1.0069532E0,4.7804418E-1,-4.324876E-1,-6.04016E-1,-4.979431E-1,8.457549E-1,-1.5917407E-2,4.1459167E-1,-3.25281E-1,1.2209169E0,5.456941E-1,6.6390276E-2,-6.374838E-2,2.0972368E-1,-3.9886934E-1,6.9086915E-1,1.221742E0,5.6406703E-2,-2.3077643E-2,-2.5577817E-2,-5.168561E-3,-3.0238932E-2,1.9415517E-3,-6.330543E-3,-2.6038641E-2,4.7448173E-2,-1.8464785E-2,2.6039142E-2,-1.2622445E-2,6.609212E-2,1.063783E-2,-1.0938812E-2,-3.0608738E-2,5.429858E-2,6.660122E-2,4.7878873E-2,7.7374033E-3,-3.1008957E-2,4.2190842E-2,-1.5550288E-3,4.4372197E-2,3.2805134E-2,-2.4296304E-2,4.1229554E-2,-2.7866762E-3,2.9784555E-2,6.531804E-2],"categories":[],"categories_nodes":[],"categories_segments":[],"categories_sizes":[],"default_left":[0,0,0,0,0,0,0,0,0,0,0,0,0,0,0,0,0,0,0,0,0,0,0,0,0,0,0,0,0,0,0,0,0,0,0,0,0,0,0,0,0,0,0,0,0,0,0,0,0,0,0,0,0,0,0,0,0,0,0,0,0,0,0,0,0,0,0],"id":21,"left_children":[1,3,5,7,9,-1,11,-1,13,-1,15,17,19,21,23,25,27,29,31,33,35,37,39,41,43,45,47,49,51,53,55,-1,57,59,61,63,65,-1,-1,-1,-1,-1,-1,-1,-1,-1,-1,-1,-1,-1,-1,-1,-1,-1,-1,-1,-1,-1,-1,-1,-1,-1,-1,-1,-1,-1,-1],"loss_changes":[2.9166873E3,2.3986737E2,6.5260864E2,6.287329E1,2.1234941E2,0E0,1.7868506E2,0E0,3.0688599E1,0E0,2.2521198E2,9.2166016E1,2.5256519E2,4.7421432E1,4.4138184E0,5.929695E1,1.3014236E2,5.2738037E1,1.3335173E2,3.4916565E1,3.147174E1,3.8655807E1,2.2542114E1,1.5654297E0,4.892212E0,4.524008E1,1.3289323E1,5.462893E1,3.1910965E1,2.0550049E1,2.0790531E1,0E0,8.12148E1,3.2948784E1,1.695163E1,2.132817E1,1.3155029E1,0E0,0E0,0E0,0E0,0E0,0E0,0E0,0E0,0E0,0E0,0E0,0E0,0E0,0E0,0E0,0E0,0E0,0E0,0E0,0E0,0E0,0E0,0E0,0E0,0E0,0E0,0E0,0E0,0E0,0E0],"parents":[2147483647,0,0,1,1,2,2,3,3,4,4,6,6,8,8,10,10,11,11,12,12,13,13,14,14,15,15,16,16,17,17,18,18,19,19,20,20,21,21,22,22,23,23,24,24,25,25,26,26,27,27,28,28,29,29,30,30,32,32,33,33,34,34,35,35,36,36],"right_children":[2,4,6,8,10,-1,12,-1,14,-1,16,18,20,22,24,26,28,30,32,34,36,38,40,42,44,46,48,50,52,54,56,-1,58,60,62,64,66,-1,-1,-1,-1,-1,-1,-1,-1,-1,-1,-1,-1,-1,-1,-1,-1,-1,-1,-1,-1,-1,-1,-1,-1,-1,-1,-1,-1,-1,-1],"split_conditions":[5.6666666E-1,5.2E-1,3E1,-1.1041977E4,6E1,-3.18357E-2,3.052183E1,6.09152E-2,2.0499867E2,-3.1647738E-2,2.029337E2,2.01E2,6.25E-1,-7.054348E2,4.857143E-1,1.3220253E1,-1.8032312E1,2.6173776E2,-1.1041977E4,4.5663105E1,6.666667E-1,4.6153846E-1,4.878049E-1,5.195523E2,-9.719233E2,2.01E2,1.7684306E2,-7.011722E1,2.01E2,6.0465115E-1,-8.267526E2,6.6390276E-2,8E2,-4.125532E2,1.6125531E2,6.2688766E1,2E0,5.6406703E-2,-2.3077643E-2,-2.5577817E-2,-5.168561E-3,-3.0238932E-2,1.9415517E-3,-6.330543E-3,-2.6038641E-2,4.7448173E-2,-1.8464785E-2,2.6039142E-2,-1.2622445E-2,6.609212E-2,1.063783E-2,-1.0938812E-2,-3.0608738E-2,5.429858E-2,6.660122E-2,4.7878873E-2,7.7374033E-3,-3.1008957E-2,4.2190842E-2,-1.5550288E-3,4.4372197E-2,3.2805134E-2,-2.4296304E-2,4.1229554E-2,-2.7866762E-3,2.9784555E-2,6.531804E-2],"split_indices":[34,34,44,38,44,0,38,0,39,0,39,37,34,40,34,38,38,39,38,38,34,41,34,23,40,37,39,38,37,34,40,0,37,40,31,36,2,0,0,0,0,0,0,0,0,0,0,0,0,0,0,0,0,0,0,0,0,0,0,0,0,0,0,0,0,0,0],"split_type":[0,0,0,0,0,0,0,0,0,0,0,0,0,0,0,0,0,0,0,0,0,0,0,0,0,0,0,0,0,0,0,0,0,0,0,0,0,0,0,0,0,0,0,0,0,0,0,0,0,0,0,0,0,0,0,0,0,0,0,0,0,0,0,0,0,0,0],"sum_hessian":[9.767732E3,6.5501665E3,3.2175657E3,4.1046606E3,2.4455056E3,2.924402E2,2.9251255E3,1.8553345E1,4.0861074E3,6.2466425E2,1.8208414E3,2.051141E3,8.739845E2,9.3915826E2,3.1469492E3,4.525258E2,1.3683156E3,1.7746038E3,2.765373E2,3.7347293E2,5.005116E2,5.903431E1,8.8012396E2,2.5181248E3,6.2882446E2,3.5085577E2,1.0167002E2,3.035931E2,1.0647225E3,1.642195E3,1.3240881E2,1.1956615E2,1.5697116E2,1.9691623E2,1.7655669E2,2.0685858E2,2.93653E2,3.4970024E1,2.4064287E1,7.07518E2,1.7260597E2,2.5160361E3,2.0886736E0,3.8448105E1,5.9037634E2,3.2416974E2,2.6686056E1,2.9718979E1,7.1951035E1,5.277835E1,2.5081476E2,7.80312E2,2.844105E2,7.53311E2,8.88884E2,6.2443455E1,6.996536E1,9.804421E1,5.892694E1,1.4615227E2,5.076397E1,1.2024531E1,1.6453215E2,1.7582742E2,3.1031155E1,3.7583126E1,2.560699E2],"tree_param":{"num_deleted":"0","num_feature":"45","num_nodes":"67","size_leaf_vector":"1"}},{"base_weights":[-4.607134E-3,6.8498366E-2,-3.178441E-2],"categories":[],"categories_nodes":[],"categories_segments":[],"categories_sizes":[],"default_left":[0,0,0],"id":22,"left_children":[1,-1,-1],"loss_changes":[8.442744E3,0E0,0E0],"parents":[2147483647,0,0],"right_children":[2,-1,-1],"split_conditions":[6E1,6.8498366E-2,-3.178441E-2],"split_indices":[44,0,0],"split_type":[0,0,0],"sum_hessian":[9.729046E3,3.060266E3,6.66878E3],"tree_param":{"num_deleted":"0","num_feature":"45","num_nodes":"3","size_leaf_vector":"1"}},{"base_weights":[1.8478226E-3,-2.5187713E-1,8.6729366E-1,-3.1474825E-2,-1.1600829E-1,1.2618043E0,3.6911223E-2,9.637246E-2,-3.0141917E-1,-2.943321E-2,1.3073244E0,-3.139621E-2,3.5616234E-1,2.0124781E-1,-1.9973129E-1,-4.6060616E-1,-1.7977585E-1,-2.8011966E-2,6.68604E-2,-3.049604E-2,5.478174E-1,1.6705847E-1,6.85713E-1,8.368279E-1,-2.7168718E-1,-2.0897971E-1,-4.8649648E-1,-7.694432E-2,-3.3337033E-1,-7.225039E-2,7.923818E-1,1.2431056E-2,-1.0995834E-2,-2.005081E-2,4.2570394E-2,7.259154E-2,1.2363165E-3,-1.941476E-2,-0E0,-1.6369289E-2,2.503853E-2,-2.8149063E-2,-2.1189218E-2,-1.1847653E-2,2.784576E-3,3.1589147E-2,-1.8176029E-2,4.6237655E-2,-2.2233875E-2,5.0794035E-2,9.226668E-3],"categories":[],"categories_nodes":[],"categories_segments":[],"categories_sizes":[],"default_left":[0,0,0,0,0,0,0,0,0,0,0,0,0,0,0,0,0,0,0,0,0,0,0,0,0,0,0,0,0,0,0,0,0,0,0,0,0,0,0,0,0,0,0,0,0,0,0,0,0,0,0],"id":23,"left_children":[1,3,5,-1,7,9,11,13,15,-1,17,-1,19,21,23,25,27,-1,-1,-1,29,31,33,35,37,39,41,43,45,47,49,-1,-1,-1,-1,-1,-1,-1,-1,-1,-1,-1,-1,-1,-1,-1,-1,-1,-1,-1,-1],"loss_changes":[2.150713E3,3.8799802E2,7.267158E2,0E0,2.19581E2,1.2866406E2,1.5263762E2,8.074274E1,5.7155792E1,0E0,8.390845E1,0E0,9.074013E1,3.1152222E1,5.082524E1,7.8289795E0,2.6473995E1,0E0,0E0,0E0,6.228E1,5.6853424E1,2.3412556E1,2.1226452E1,2.0370949E1,1.0772343E1,4.6078796E0,2.1727657E1,2.0000465E1,4.3853195E1,3.8833633E1,0E0,0E0,0E0,0E0,0E0,0E0,0E0,0E0,0E0,0E0,0E0,0E0,0E0,0E0,0E0,0E0,0E0,0E0,0E0,0E0],"parents":[2147483647,0,0,1,1,2,2,4,4,5,5,6,6,7,7,8,8,10,10,12,12,13,13,14,14,15,15,16,16,20,20,21,21,22,22,23,23,24,24,25,25,26,26,27,27,28,28,29,29,30,30],"right_children":[2,4,6,-1,8,10,12,14,16,-1,18,-1,20,22,24,26,28,-1,-1,-1,30,32,34,36,38,40,42,44,46,48,50,-1,-1,-1,-1,-1,-1,-1,-1,-1,-1,-1,-1,-1,-1,-1,-1,-1,-1,-1,-1],"split_conditions":[2.01E2,6E1,6.2E2,-3.1474825E-2,5.3846157E-1,3E1,3E0,-5.249087E2,2.0955846E2,-2.943321E-2,-1.1041977E4,-3.139621E-2,-1.1041977E4,-5.469407E2,2E0,2E0,6.111111E-1,-2.8011966E-2,6.68604E-2,-3.049604E-2,1.1966E2,-6.024281E2,-3.7648945E1,1.97E2,5.208333E-1,2.3475424E2,1.8075603E2,4.841319E0,7.935E1,-7.848246E0,1.51E3,1.2431056E-2,-1.0995834E-2,-2.005081E-2,4.2570394E-2,7.259154E-2,1.2363165E-3,-1.941476E-2,-0E0,-1.6369289E-2,2.503853E-2,-2.8149063E-2,-2.1189218E-2,-1.1847653E-2,2.784576E-3,3.1589147E-2,-1.8176029E-2,4.6237655E-2,-2.2233875E-2,5.0794035E-2,9.226668E-3],"split_indices":[37,44,37,0,26,44,2,40,39,0,38,0,38,40,2,1,26,0,0,0,35,40,38,37,41,23,39,22,27,38,37,0,0,0,0,0,0,0,0,0,0,0,0,0,0,0,0,0,0,0,0],"split_type":[0,0,0,0,0,0,0,0,0,0,0,0,0,0,0,0,0,0,0,0,0,0,0,0,0,0,0,0,0,0,0,0,0,0,0,0,0,0,0,0,0,0,0,0,0,0,0,0,0,0,0],"sum_hessian":[9.789043E3,7.5704385E3,2.2186045E3,2.0002397E3,5.5701987E3,1.502929E3,7.156755E2,2.5954631E3,2.9747356E3,3.5246567E1,1.4676824E3,2.3103949E2,4.84636E2,1.9183446E3,6.771186E2,1.28433E3,1.6904056E3,2.2292446E1,1.44539E3,7.9073494E1,4.055625E2,1.795365E3,1.22979546E2,4.2122044E1,6.349965E2,1.2331298E2,1.161017E3,1.01626996E3,6.741357E2,1.1453516E2,2.9102734E2,1.4844872E3,3.1087784E2,1.5495103E1,1.0748444E2,2.2722876E1,1.9399166E1,4.4496387E2,1.9003267E2,1.0720941E2,1.6103573E1,5.122907E2,6.487262E2,4.6160153E2,5.546684E2,1.8709944E1,6.554257E2,2.9976946E1,8.455821E1,2.1120468E2,7.9822655E1],"tree_param":{"num_deleted":"0","num_feature":"45","num_nodes":"51","size_leaf_vector":"1"}},{"base_weights":[1.9878587E-3,-3.1395476E-2,1.8074307E-1,3.6615267E-1,-2.1381304E-1,5.831361E-1,-2.9393882E-1,-3.6921844E-1,2.1211296E-1,2.9600654E-2,6.25908E-1,-5.870064E-1,3.3705804E-1,-4.458906E-1,9.630869E-3,5.291119E-1,-3.2460412E-1,5.500195E-1,-1.8260574E-1,5.870101E-1,9.473644E-1,-5.9239054E-1,1.9953702E-2,5.0776017E-1,-3.040666E-2,-2.1583357E-1,-5.245158E-1,2.2818291E-1,-4.8886108E-1,3.4402677E-1,9.6111846E-1,5.6472826E-1,-4.8944575E-1,5.3348698E-2,-7.395661E-3,5.95798E-2,-1.4595486E-2,3.370166E-2,1.309394E-2,3.0174155E-2,5.4330427E-2,-3.0043418E-2,-4.0127984E-3,4.6604063E-2,8.607465E-3,-1.8543808E-2,2.0122621E-3,-2.6520927E-2,4.1793317E-2,3.95302E-2,-8.585888E-3,-2.6427332E-2,1.9121563E-2,2.6002059E-2,-5.598111E-3,5.9518125E-2,2.3756484E-2,6.6487156E-2,-1.3042659E-2,-2.5831262E-2,4.390155E-2],"categories":[],"categories_nodes":[],"categories_segments":[],"categories_sizes":[],"default_left":[0,0,0,0,0,0,0,0,0,0,0,0,0,0,0,0,0,0,0,0,0,0,0,0,0,0,0,0,0,0,0,0,0,0,0,0,0,0,0,0,0,0,0,0,0,0,0,0,0,0,0,0,0,0,0,0,0,0,0,0,0],"id":24,"left_children":[1,-1,3,5,7,9,11,13,15,17,19,21,23,25,27,29,31,33,35,37,39,41,-1,43,-1,45,47,49,51,53,55,57,59,-1,-1,-1,-1,-1,-1,-1,-1,-1,-1,-1,-1,-1,-1,-1,-1,-1,-1,-1,-1,-1,-1,-1,-1,-1,-1,-1,-1],"loss_changes":[1.098442E3,0E0,5.5629083E2,7.4137225E2,1.6110733E2,9.183484E1,2.3731021E2,5.1997284E1,1.1105727E2,3.1556948E1,4.331006E1,5.218445E0,6.620776E1,2.6236298E1,3.2869358E1,3.1474426E1,3.6000366E1,3.069981E1,3.0486145E1,9.058374E1,1.630072E1,3.349823E0,0E0,4.841871E1,0E0,1.5396254E1,9.587616E0,4.8085518E1,3.6459274E0,2.3676468E1,1.1524223E1,2.5420746E1,8.373749E0,0E0,0E0,0E0,0E0,0E0,0E0,0E0,0E0,0E0,0E0,0E0,0E0,0E0,0E0,0E0,0E0,0E0,0E0,0E0,0E0,0E0,0E0,0E0,0E0,0E0,0E0,0E0,0E0],"parents":[2147483647,0,0,2,2,3,3,4,4,5,5,6,6,7,7,8,8,9,9,10,10,11,11,12,12,13,13,14,14,15,15,16,16,17,17,18,18,19,19,20,20,21,21,23,23,25,25,26,26,27,27,28,28,29,29,30,30,31,31,32,32],"right_children":[2,-1,4,6,8,10,12,14,16,18,20,22,24,26,28,30,32,34,36,38,40,42,-1,44,-1,46,48,50,52,54,56,58,60,-1,-1,-1,-1,-1,-1,-1,-1,-1,-1,-1,-1,-1,-1,-1,-1,-1,-1,-1,-1,-1,-1,-1,-1,-1,-1,-1,-1],"split_conditions":[6E1,-3.1395476E-2,5.625E-1,2.01E2,3.6997543E1,1.7847952E2,6.2E2,2E1,6.4705884E-1,4.6153846E-1,2.9954388E1,-1.4447433E2,3.0549698E2,5.8064514E-1,1.99E2,5.8778786E1,2E0,1.98E2,2E0,5.208333E-1,5.102041E-1,3.683644E2,1.9953702E-2,1.2208E2,-3.040666E-2,9.750488E0,1.56E3,4E0,3.2959045E2,1.8E1,1.99E2,9.695E1,1.95899E2,5.3348698E-2,-7.395661E-3,5.95798E-2,-1.4595486E-2,3.370166E-2,1.309394E-2,3.0174155E-2,5.4330427E-2,-3.0043418E-2,-4.0127984E-3,4.6604063E-2,8.607465E-3,-1.8543808E-2,2.0122621E-3,-2.6520927E-2,4.1793317E-2,3.95302E-2,-8.585888E-3,-2.6427332E-2,1.9121563E-2,2.6002059E-2,-5.598111E-3,5.9518125E-2,2.3756484E-2,6.6487156E-2,-1.3042659E-2,-2.5831262E-2,4.390155E-2],"split_indices":[44,0,34,37,38,39,37,1,34,34,38,32,39,34,37,38,2,37,2,34,34,31,0,35,0,38,21,2,31,1,37,27,36,0,0,0,0,0,0,0,0,0,0,0,0,0,0,0,0,0,0,0,0,0,0,0,0,0,0,0,0],"split_type":[0,0,0,0,0,0,0,0,0,0,0,0,0,0,0,0,0,0,0,0,0,0,0,0,0,0,0,0,0,0,0,0,0,0,0,0,0,0,0,0,0,0,0,0,0,0,0,0,0,0,0,0,0,0,0,0,0,0,0,0,0],"sum_hessian":[9.75345E3,2.154302E3,7.599148E3,5.170732E3,2.4284163E3,3.8922673E3,1.2784645E3,1.7802909E3,6.481253E2,2.802658E2,3.6120015E3,8.736351E2,4.048295E2,1.4814403E3,2.9885062E2,4.080691E2,2.400562E2,8.0939835E1,1.9932597E2,3.2285388E3,3.8346268E2,8.701892E2,3.4458258E0,3.4413336E2,6.069612E1,3.8086874E2,1.1005715E3,2.0921344E2,8.963717E1,2.8900177E2,1.1906734E2,3.630471E1,2.0375148E2,4.630264E1,3.46372E1,1.28901005E1,1.8643587E2,2.5439526E3,6.845862E2,1.14629395E2,2.6883328E2,8.547176E2,1.547164E1,1.4975282E2,1.9438054E2,2.3789279E2,1.4297595E2,1.0973977E3,3.1739209E0,8.664793E1,1.22565506E2,8.7033585E1,2.603585E0,2.0910255E2,7.9899216E1,7.823556E1,4.0831776E1,1.852398E1,1.7780731E1,2.0135939E2,2.3920972E0],"tree_param":{"num_deleted":"0","num_feature":"45","num_nodes":"61","size_leaf_vector":"1"}},{"base_weights":[-8.628068E-5,-2.634102E-1,4.491761E-1,3.6823475E-1,-3.4832308E-1,-3.1527802E-2,6.302505E-1,-3.081501E-2,6.1778116E-1,6.255517E-2,-3.733283E-1,7.593212E-1,-3.118294E-2,1.8043505E-1,8.7362146E-1,-3.1401355E-2,-2.7008355E-1,1.0181372E0,4.9157426E-1,6.2550955E-2,-4.047282E-1,-6.1648104E-2,6.697482E-1,1.2120545E0,6.512908E-1,-1.578494E-1,-5.961696E-1,1.1672564E0,8.4865266E-1,7.235606E-1,2.3763508E-1,-3.1312123E-2,1.3452472E-1,3.6126867E-2,-1.097517E-2,6.087186E-2,1.407422E-2,6.3166074E-2,1.0993955E-2,5.101184E-2,1.9156305E-2,-1.7047627E-2,1.2183199E-3,-1.543825E-2,-3.0926773E-2,6.1275937E-2,4.83755E-2,1.8953381E-2,4.817293E-2,2.282491E-2,4.803224E-2,4.465638E-3,4.3343734E-2,6.856414E-2,-1.2986031E-2],"categories":[],"categories_nodes":[],"categories_segments":[],"categories_sizes":[],"default_left":[0,0,0,0,0,0,0,0,0,0,0,0,0,0,0,0,0,0,0,0,0,0,0,0,0,0,0,0,0,0,0,0,0,0,0,0,0,0,0,0,0,0,0,0,0,0,0,0,0,0,0,0,0,0,0],"id":25,"left_children":[1,3,5,7,9,-1,11,-1,13,-1,15,17,19,21,23,-1,25,27,29,-1,31,33,35,37,39,41,43,45,47,49,51,-1,53,-1,-1,-1,-1,-1,-1,-1,-1,-1,-1,-1,-1,-1,-1,-1,-1,-1,-1,-1,-1,-1,-1],"loss_changes":[1.1444366E3,3.2743335E2,6.9963385E2,1.7843411E2,2.1562738E2,0E0,2.6185852E2,0E0,6.3868027E1,0E0,1.3853363E2,1.7586267E2,2.4069984E2,2.605487E1,2.485141E1,0E0,1.3758734E2,2.987854E1,7.3676605E1,0E0,4.7004208E1,1.8153309E1,1.3998047E1,5.8729553E0,2.074604E1,9.4000435E1,5.3556213E0,4.5029297E0,3.189264E1,4.0132507E1,5.6089993E1,0E0,5.712341E1,0E0,0E0,0E0,0E0,0E0,0E0,0E0,0E0,0E0,0E0,0E0,0E0,0E0,0E0,0E0,0E0,0E0,0E0,0E0,0E0,0E0,0E0],"parents":[2147483647,0,0,1,1,2,2,3,3,4,4,6,6,8,8,10,10,11,11,12,12,13,13,14,14,16,16,17,17,18,18,20,20,21,21,22,22,23,23,24,24,25,25,26,26,27,27,28,28,29,29,30,30,32,32],"right_children":[2,4,6,8,10,-1,12,-1,14,-1,16,18,20,22,24,-1,26,28,30,-1,32,34,36,38,40,42,44,46,48,50,52,-1,54,-1,-1,-1,-1,-1,-1,-1,-1,-1,-1,-1,-1,-1,-1,-1,-1,-1,-1,-1,-1,-1,-1],"split_conditions":[5.714286E-1,1.8512164E2,6E1,3E1,-1.3829232E3,-3.1527802E-2,2.01E2,-3.081501E-2,4.5454547E-1,6.255517E-2,6E1,2.1131926E2,-1.1041977E4,1.01E2,-1.3037601E1,-3.1401355E-2,2.01E2,2.5353712E1,3.6743923E1,6.2550955E-2,9.8E2,5E0,1.94E2,2.01E2,1.6506941E2,5E-1,2E0,2.0495804E2,6.111111E-1,6.111111E-1,7.1428573E-1,-3.1312123E-2,2E0,3.6126867E-2,-1.097517E-2,6.087186E-2,1.407422E-2,6.3166074E-2,1.0993955E-2,5.101184E-2,1.9156305E-2,-1.7047627E-2,1.2183199E-3,-1.543825E-2,-3.0926773E-2,6.1275937E-2,4.83755E-2,1.8953381E-2,4.817293E-2,2.282491E-2,4.803224E-2,4.465638E-3,4.3343734E-2,6.856414E-2,-1.2986031E-2],"split_indices":[26,39,44,44,40,0,37,0,26,0,44,39,38,27,30,0,37,30,30,0,37,1,29,37,39,26,2,31,26,26,26,0,2,0,0,0,0,0,0,0,0,0,0,0,0,0,0,0,0,0,0,0,0,0,0],"split_type":[0,0,0,0,0,0,0,0,0,0,0,0,0,0,0,0,0,0,0,0,0,0,0,0,0,0,0,0,0,0,0,0,0,0,0,0,0,0,0,0,0,0,0,0,0,0,0,0,0,0,0,0,0,0,0],"sum_hessian":[9.67068E3,6.098271E3,3.572409E3,7.2116315E2,5.377108E3,5.119523E2,3.0604568E3,1.448285E2,5.763346E2,8.095358E1,5.2961543E3,2.561141E3,4.993156E2,2.1469289E2,3.6164175E2,1.5232867E3,3.7728677E3,1.2984905E3,1.2626506E3,1.1128634E2,3.8802927E2,1.4411801E2,7.057487E1,1.389616E2,2.2268015E2,2.8101543E3,9.627134E2,6.829126E2,6.155779E2,6.568851E2,6.0576556E2,2.754745E2,1.1255479E2,2.2419865E1,1.2169815E2,2.6970718E1,4.360415E1,1.3113518E2,7.826416E0,9.0582054E1,1.320981E2,1.402164E3,1.4079904E3,7.32614E1,8.89452E2,5.1881116E2,1.6410141E2,1.2347847E2,4.920994E2,3.1265555E2,3.4422955E2,4.9270517E2,1.1306037E2,2.6315163E1,8.6239624E1],"tree_param":{"num_deleted":"0","num_feature":"45","num_nodes":"55","size_leaf_vector":"1"}},{"base_weights":[-3.3749817E-3,6.438745E-2,-3.1497907E-2],"categories":[],"categories_nodes":[],"categories_segments":[],"categories_sizes":[],"default_left":[0,0,0],"id":26,"left_children":[1,-1,-1],"loss_changes":[7.7533228E3,0E0,0E0],"parents":[2147483647,0,0],"right_children":[2,-1,-1],"split_conditions":[6E1,6.438745E-2,-3.1497907E-2],"split_indices":[44,0,0],"split_type":[0,0,0],"sum_hessian":[9.580278E3,3.1292676E3,6.451011E3],"tree_param":{"num_deleted":"0","num_feature":"45","num_nodes":"3","size_leaf_vector":"1"}},{"base_weights":[7.766814E-3,-2.3980732E-1,8.236948E-1,-3.1167239E-2,-1.0565883E-1,1.1887974E0,4.516466E-2,1.1793033E-1,-3.9857447E-1,-2.9182676E-2,1.2319334E0,-3.1089772E-2,3.487369E-1,2.4250223E-1,-6.377501E-2,-5.095076E-1,-2.3668768E-1,-2.7813543E-2,6.3021265E-2,-3.0222228E-2,5.340433E-1,3.117563E-1,-7.719867E-2,4.6996754E-1,-1.187666E-1,-5.183701E-1,1.460271E-1,-1.3143326E-1,-4.071277E-1,6.69983E-1,-4.772136E-1,1.4796023E-2,7.6623015E-2,-1.4628614E-2,2.0163042E-2,2.9795493E-3,5.834041E-2,-1.6761145E-2,-2.6002221E-3,-3.8096344E-3,-2.6667956E-2,6.274556E-2,-1.9486543E-2,5.885774E-3,-1.4652078E-2,-0E0,-2.2809548E-2,4.60257E-3,4.0336844E-2,2.0290941E-2,-2.744984E-2],"categories":[],"categories_nodes":[],"categories_segments":[],"categories_sizes":[],"default_left":[0,0,0,0,0,0,0,0,0,0,0,0,0,0,0,0,0,0,0,0,0,0,0,0,0,0,0,0,0,0,0,0,0,0,0,0,0,0,0,0,0,0,0,0,0,0,0,0,0,0,0],"id":27,"left_children":[1,3,5,-1,7,9,11,13,15,-1,17,-1,19,21,23,25,27,-1,-1,-1,29,31,33,35,37,39,41,43,45,47,49,-1,-1,-1,-1,-1,-1,-1,-1,-1,-1,-1,-1,-1,-1,-1,-1,-1,-1,-1,-1],"loss_changes":[1.9635555E3,3.8312622E2,6.425082E2,0E0,3.6223575E2,1.1950537E2,1.470809E2,7.108667E1,4.238141E1,0E0,7.8398926E1,0E0,8.8925545E1,4.1392754E1,3.736274E1,8.570374E0,1.7187798E1,0E0,0E0,0E0,5.8489372E1,2.779776E1,3.452116E1,3.3180405E1,1.6512642E1,8.888733E0,1.3120663E1,2.4719967E1,7.603428E0,2.8771454E1,3.719164E0,0E0,0E0,0E0,0E0,0E0,0E0,0E0,0E0,0E0,0E0,0E0,0E0,0E0,0E0,0E0,0E0,0E0,0E0,0E0,0E0],"parents":[2147483647,0,0,1,1,2,2,4,4,5,5,6,6,7,7,8,8,10,10,12,12,13,13,14,14,15,15,16,16,20,20,21,21,22,22,23,23,24,24,25,25,26,26,27,27,28,28,29,29,30,30],"right_children":[2,4,6,-1,8,10,12,14,16,-1,18,-1,20,22,24,26,28,-1,-1,-1,30,32,34,36,38,40,42,44,46,48,50,-1,-1,-1,-1,-1,-1,-1,-1,-1,-1,-1,-1,-1,-1,-1,-1,-1,-1,-1,-1],"split_conditions":[2.01E2,6E1,6.2E2,-3.1167239E-2,5.416667E-1,3E1,3E0,5E-1,2.2088658E2,-2.9182676E-2,-1.1041977E4,-3.1089772E-2,-8.989913E1,-5.0422424E2,2E0,7.7622185E1,5.208333E-1,-2.7813543E-2,6.3021265E-2,-3.0222228E-2,-4.279848E2,-5.061418E2,5.208333E-1,2.4479109E2,-1.8431257E1,1.86E2,-3.8875555E2,5.714286E-1,1.91E2,1.1834E2,4.510531E1,1.4796023E-2,7.6623015E-2,-1.4628614E-2,2.0163042E-2,2.9795493E-3,5.834041E-2,-1.6761145E-2,-2.6002221E-3,-3.8096344E-3,-2.6667956E-2,6.274556E-2,-1.9486543E-2,5.885774E-3,-1.4652078E-2,-0E0,-2.2809548E-2,4.60257E-3,4.0336844E-2,2.0290941E-2,-2.744984E-2],"split_indices":[37,44,37,0,34,44,2,34,39,0,38,0,38,40,2,38,41,0,0,0,40,40,41,39,38,37,40,26,37,35,20,0,0,0,0,0,0,0,0,0,0,0,0,0,0,0,0,0,0,0,0],"split_type":[0,0,0,0,0,0,0,0,0,0,0,0,0,0,0,0,0,0,0,0,0,0,0,0,0,0,0,0,0,0,0,0,0,0,0,0,0,0,0,0,0,0,0,0,0,0,0,0,0,0,0],"sum_hessian":[9.715042E3,7.454077E3,2.2609648E3,1.9287269E3,5.52535E3,1.5380015E3,7.2296344E2,3.1331973E3,2.392153E3,3.5670124E1,1.5023313E3,2.2496437E2,4.9799908E2,1.86007E3,1.2731273E3,1.4150825E3,9.770705E2,2.2705353E1,1.479626E3,7.988153E1,4.1811755E2,1.5302078E3,3.298622E2,1.1665935E2,1.156468E3,1.397372E3,1.7710564E1,6.080488E2,3.690217E2,3.6960257E2,4.8514988E1,1.5134684E3,1.6739355E1,2.2902216E2,1.0084004E2,7.523893E1,4.1420414E1,2.6894922E2,8.8751874E2,4.730792E1,1.350064E3,5.1988635E0,1.2511701E1,2.3822725E2,